{"learner":{"attributes":{"scikit_learn":"{\"_estimator_type\": \"classifier\"}"},"feature_names":["speed","accel","decel","num_targets","max_gap","rel_speed","max_plr","k_lost_max","speed_kmh","abs_accel","is_braking","brake_ratio","abs_net_accel","has_targets","speed_category","closing_speed","scenario_tsv","scenario_hnr"],"feature_types":["float","float","float","int","float","float","float","int","float","float","int","float","float","int","int","float","int","int"],"gradient_booster":{"model":{"cats":{"enc":[],"feature_segments":[],"sorted_idx":[]},"gbtree_model_param":{"num_parallel_tree":"1","num_trees":"800"},"iteration_indptr":[0,4,8,12,16,20,24,28,32,36,40,44,48,52,56,60,64,68,72,76,80,84,88,92,96,100,104,108,112,116,120,124,128,132,136,140,144,148,152,156,160,164,168,172,176,180,184,188,192,196,200,204,208,212,216,220,224,228,232,236,240,244,248,252,256,260,264,268,272,276,280,284,288,292,296,300,304,308,312,316,320,324,328,332,336,340,344,348,352,356,360,364,368,372,376,380,384,388,392,396,400,404,408,412,416,420,424,428,432,436,440,444,448,452,456,460,464,468,472,476,480,484,488,492,496,500,504,508,512,516,520,524,528,532,536,540,544,548,552,556,560,564,568,572,576,580,584,588,592,596,600,604,608,612,616,620,624,628,632,636,640,644,648,652,656,660,664,668,672,676,680,684,688,692,696,700,704,708,712,716,720,724,728,732,736,740,744,748,752,756,760,764,768,772,776,780,784,788,792,796,800],"tree_info":[0,1,2,3,0,1,2,3,0,1,2,3,0,1,2,3,0,1,2,3,0,1,2,3,0,1,2,3,0,1,2,3,0,1,2,3,0,1,2,3,0,1,2,3,0,1,2,3,0,1,2,3,0,1,2,3,0,1,2,3,0,1,2,3,0,1,2,3,0,1,2,3,0,1,2,3,0,1,2,3,0,1,2,3,0,1,2,3,0,1,2,3,0,1,2,3,0,1,2,3,0,1,2,3,0,1,2,3,0,1,2,3,0,1,2,3,0,1,2,3,0,1,2,3,0,1,2,3,0,1,2,3,0,1,2,3,0,1,2,3,0,1,2,3,0,1,2,3,0,1,2,3,0,1,2,3,0,1,2,3,0,1,2,3,0,1,2,3,0,1,2,3,0,1,2,3,0,1,2,3,0,1,2,3,0,1,2,3,0,1,2,3,0,1,2,3,0,1,2,3,0,1,2,3,0,1,2,3,0,1,2,3,0,1,2,3,0,1,2,3,0,1,2,3,0,1,2,3,0,1,2,3,0,1,2,3,0,1,2,3,0,1,2,3,0,1,2,3,0,1,2,3,0,1,2,3,0,1,2,3,0,1,2,3,0,1,2,3,0,1,2,3,0,1,2,3,0,1,2,3,0,1,2,3,0,1,2,3,0,1,2,3,0,1,2,3,0,1,2,3,0,1,2,3,0,1,2,3,0,1,2,3,0,1,2,3,0,1,2,3,0,1,2,3,0,1,2,3,0,1,2,3,0,1,2,3,0,1,2,3,0,1,2,3,0,1,2,3,0,1,2,3,0,1,2,3,0,1,2,3,0,1,2,3,0,1,2,3,0,1,2,3,0,1,2,3,0,1,2,3,0,1,2,3,0,1,2,3,0,1,2,3,0,1,2,3,0,1,2,3,0,1,2,3,0,1,2,3,0,1,2,3,0,1,2,3,0,1,2,3,0,1,2,3,0,1,2,3,0,1,2,3,0,1,2,3,0,1,2,3,0,1,2,3,0,1,2,3,0,1,2,3,0,1,2,3,0,1,2,3,0,1,2,3,0,1,2,3,0,1,2,3,0,1,2,3,0,1,2,3,0,1,2,3,0,1,2,3,0,1,2,3,0,1,2,3,0,1,2,3,0,1,2,3,0,1,2,3,0,1,2,3,0,1,2,3,0,1,2,3,0,1,2,3,0,1,2,3,0,1,2,3,0,1,2,3,0,1,2,3,0,1,2,3,0,1,2,3,0,1,2,3,0,1,2,3,0,1,2,3,0,1,2,3,0,1,2,3,0,1,2,3,0,1,2,3,0,1,2,3,0,1,2,3,0,1,2,3,0,1,2,3,0,1,2,3,0,1,2,3,0,1,2,3,0,1,2,3,0,1,2,3,0,1,2,3,0,1,2,3,0,1,2,3,0,1,2,3,0,1,2,3,0,1,2,3,0,1,2,3,0,1,2,3,0,1,2,3,0,1,2,3,0,1,2,3,0,1,2,3,0,1,2,3,0,1,2,3,0,1,2,3,0,1,2,3,0,1,2,3,0,1,2,3,0,1,2,3,0,1,2,3,0,1,2,3,0,1,2,3,0,1,2,3,0,1,2,3,0,1,2,3,0,1,2,3,0,1,2,3,0,1,2,3,0,1,2,3,0,1,2,3,0,1,2,3,0,1,2,3,0,1,2,3,0,1,2,3,0,1,2,3,0,1,2,3,0,1,2,3,0,1,2,3,0,1,2,3,0,1,2,3,0,1,2,3,0,1,2,3,0,1,2,3,0,1,2,3,0,1,2,3,0,1,2,3,0,1,2,3],"trees":[{"base_weights":[2.253461E-3,-1.6753945E-1,1.8889962E0,-3.931541E-1,1.949749E-1,1.03154E0,1.9820362E0,-4.3617266E-1,-2.417547E-1,-6.29208E-1,1.6918031E0,2.4864267E-1,1.78251E0,1.8283293E0,1.9988324E-1,-6.1117107E-1,-4.1062957E-1,-1.53933E-1,-4.4603214E-1,1.3912704E0,-6.549182E-1,8.8736045E-1,1.896706E0,1.878264E-1,4.0511284E-3,1.9822131E-1,3.8912737E-1,1.9900681E-1,8.8646865E-1,-1.5055937E-1,-6.276118E-1,-4.23094E-1,-1.7928937E-1,-3.1400463E-1,1.7254703E-3,-4.910727E-1,-2.2017503E-1,1.6941813E0,6.1507505E-1,1.7047474E-1,-6.5711594E-1,1.27607E0,-2.7594056E-2,1.9367625E0,1.5279938E0,6.1334026E-1,-2.5066143E-1,-3.0002412E-1,1.6827741E-1,2.2433168E-1,1.8652001E-1,-2.9650081E-2,1.5915665E-1,6.1131497E-3,-6.295763E-2,-3.719891E-2,-4.40042E-2,2.8804177E-2,-2.200391E-2,-3.2136064E-2,8.069018E-2,9.728784E-2,-8.726937E-3,-5.694459E-2,-4.0401474E-2,-2.9509721E-2,1.7308451E-1,1.9419734E-1,1.3557027E-1,1.8180922E-1,-2.0442849E-2,-6.587844E-2,1.6272901E-1,1.7374218E-1,9.231501E-2,1.595837E-1,-3.290252E-2,1.9465807E-1,1.4404333E-1,7.733104E-2,1.815068E-1,1.8362425E-1,-9.391896E-3,-3.4861945E-2,1.5282565E-1,-4.190852E-2,-4.2659673E-3,1.557644E-1,-8.60358E-3],"categories":[],"categories_nodes":[],"categories_segments":[],"categories_sizes":[],"default_left":[0,0,0,0,0,0,0,0,0,0,0,0,0,0,0,0,0,0,0,0,0,0,0,0,0,0,0,0,0,0,0,0,0,0,0,0,0,0,0,0,0,0,0,0,0,0,0,0,0,0,0,0,0,0,0,0,0,0,0,0,0,0,0,0,0,0,0,0,0,0,0,0,0,0,0,0,0,0,0,0,0,0,0,0,0,0,0,0,0],"id":0,"left_children":[1,3,5,7,9,11,13,15,17,19,21,23,25,27,-1,29,31,33,35,37,39,41,43,-1,45,-1,47,-1,49,51,53,55,57,59,61,63,65,67,69,-1,71,73,75,77,79,81,83,85,-1,87,-1,-1,-1,-1,-1,-1,-1,-1,-1,-1,-1,-1,-1,-1,-1,-1,-1,-1,-1,-1,-1,-1,-1,-1,-1,-1,-1,-1,-1,-1,-1,-1,-1,-1,-1,-1,-1,-1,-1],"loss_changes":[1.0568189E4,2.475407E3,2.1494043E2,1.21328125E2,1.4324571E4,1.5738846E2,2.3027344E0,6.457666E1,7.397391E1,3.8983228E2,6.7766895E2,5.2748512E1,3.710492E1,3.6677185E1,0E0,1.3819275E1,3.642456E1,7.205445E1,1.2445358E1,2.0913055E1,3.936548E1,2.9855286E2,4.5213867E1,0E0,1.8277742E1,0E0,1.7115679E1,0E0,2.4746155E1,1.691921E1,2.5083008E0,1.0174316E1,1.2441778E1,1.1963776E1,1.2689015E2,6.7241516E0,3.0847382E1,2.6746368E0,2.8285831E1,0E0,2.9137207E1,9.4020935E1,1.2325777E2,1.1277344E1,6.916156E1,3.0415514E1,1.4840728E1,3.2979786E-1,0E0,1.044102E1,0E0,0E0,0E0,0E0,0E0,0E0,0E0,0E0,0E0,0E0,0E0,0E0,0E0,0E0,0E0,0E0,0E0,0E0,0E0,0E0,0E0,0E0,0E0,0E0,0E0,0E0,0E0,0E0,0E0,0E0,0E0,0E0,0E0,0E0,0E0,0E0,0E0,0E0,0E0],"parents":[2147483647,0,0,1,1,2,2,3,3,4,4,5,5,6,6,7,7,8,8,9,9,10,10,11,11,12,12,13,13,15,15,16,16,17,17,18,18,19,19,20,20,21,21,22,22,24,24,26,26,28,28,29,29,30,30,31,31,32,32,33,33,34,34,35,35,36,36,37,37,38,38,40,40,41,41,42,42,43,43,44,44,45,45,46,46,47,47,49,49],"right_children":[2,4,6,8,10,12,14,16,18,20,22,24,26,28,-1,30,32,34,36,38,40,42,44,-1,46,-1,48,-1,50,52,54,56,58,60,62,64,66,68,70,-1,72,74,76,78,80,82,84,86,-1,88,-1,-1,-1,-1,-1,-1,-1,-1,-1,-1,-1,-1,-1,-1,-1,-1,-1,-1,-1,-1,-1,-1,-1,-1,-1,-1,-1,-1,-1,-1,-1,-1,-1,-1,-1,-1,-1,-1,-1],"split_conditions":[3.1835718E0,0E0,5.579607E0,-1.9025652E0,4E0,6E0,9.617287E0,6E0,1.6847574E1,2.5326023E-2,8E0,1.2621173E1,2.5078737E1,2.5078737E1,1.9988324E-1,1.0540335E1,2.6E0,5.2E-1,2.6576086E-3,1.266772E0,8.016538E0,2.2577818E-1,2.244477E1,1.878264E-1,7.7899194E-1,1.9822131E-1,2.564073E1,1.9900681E-1,1.2522072E-5,7.403627E0,-2.9859428E1,-1.8330146E0,1.2E1,6.2846845E-1,3.9385912E0,8E0,2E1,-3.6589417E-3,-2.5490704E0,1.7047474E-1,2.027104E0,1.5117564E1,1.4379071E1,2.6125956E1,2.3135477E1,1.1977699E0,1.56358795E1,-3.2834332E0,1.6827741E-1,-6.5015917E0,1.8652001E-1,-2.9650081E-2,1.5915665E-1,6.1131497E-3,-6.295763E-2,-3.719891E-2,-4.40042E-2,2.8804177E-2,-2.200391E-2,-3.2136064E-2,8.069018E-2,9.728784E-2,-8.726937E-3,-5.694459E-2,-4.0401474E-2,-2.9509721E-2,1.7308451E-1,1.9419734E-1,1.3557027E-1,1.8180922E-1,-2.0442849E-2,-6.587844E-2,1.6272901E-1,1.7374218E-1,9.231501E-2,1.595837E-1,-3.290252E-2,1.9465807E-1,1.4404333E-1,7.733104E-2,1.815068E-1,1.8362425E-1,-9.391896E-3,-3.4861945E-2,1.5282565E-1,-4.190852E-2,-4.2659673E-3,1.557644E-1,-8.60358E-3],"split_indices":[4,4,4,4,3,3,4,3,0,5,3,0,0,0,0,0,9,0,11,4,0,4,0,0,5,0,0,0,9,0,5,5,3,9,0,3,3,5,5,0,1,0,0,5,0,1,5,5,0,5,0,0,0,0,0,0,0,0,0,0,0,0,0,0,0,0,0,0,0,0,0,0,0,0,0,0,0,0,0,0,0,0,0,0,0,0,0,0,0],"split_type":[0,0,0,0,0,0,0,0,0,0,0,0,0,0,0,0,0,0,0,0,0,0,0,0,0,0,0,0,0,0,0,0,0,0,0,0,0,0,0,0,0,0,0,0,0,0,0,0,0,0,0,0,0,0,0,0,0,0,0,0,0,0,0,0,0,0,0,0,0,0,0,0,0,0,0,0,0,0,0,0,0,0,0,0,0,0,0,0,0],"sum_hessian":[3.2986414E4,3.0263758E4,2.7226562E3,1.8654268E4,1.160949E4,2.6779758E2,2.4548586E3,1.4524687E4,4.1295806E3,7.4873315E3,4.1221587E3,1.3182858E2,1.3596901E2,2.5323476E2,2.201624E3,1.8465997E3,1.2678087E4,2.8895613E3,1.2400193E3,9.336129E1,7.39397E3,8.38003E2,3.2841555E3,1.6279093E1,1.1554949E2,1.18492065E2,1.7476938E1,2.1508134E2,3.8153408E1,6.419932E1,1.7824004E3,1.2028727E4,6.493596E2,1.4244011E3,1.46516E3,1.0325002E3,2.0751897E2,6.621092E1,2.715037E1,6.1169925E0,7.387853E3,5.8793787E2,2.5006512E2,2.9582505E3,3.2590503E2,3.3765305E1,8.178419E1,1.1853251E1,5.623687E0,2.3551556E1,1.4601853E1,6.0055546E1,4.1437693E0,4.8390346E0,1.7775614E3,3.0028323E3,9.025895E3,5.139719E1,5.9796246E2,1.4159116E3,8.489497E0,1.22254456E2,1.3429056E3,5.3983185E2,4.9266846E2,2.0071135E2,6.8076205E0,3.5320698E1,3.089022E1,1.0556746E1,1.6593624E1,7.3832163E3,4.637075E0,2.529997E2,3.349382E2,3.8435482E1,2.1162964E2,2.8978044E3,6.0446198E1,9.0922585E1,2.3498244E2,1.183934E1,2.1925964E1,7.833105E1,3.453141E0,7.4088616E0,4.44439E0,3.7491245E0,1.9802431E1],"tree_param":{"num_deleted":"0","num_feature":"18","num_nodes":"89","size_leaf_vector":"1"}},{"base_weights":[-1.3350101E-2,4.5445004E-1,-6.129655E-1,9.2875594E-1,1.952285E-1,-5.220134E-1,-6.6558E-1,8.0871236E-1,1.6551605E0,2.842158E-1,-9.518619E-2,-4.5167938E-1,-6.662225E-2,-6.665763E-2,-2.6363942E-1,7.6462454E-1,1.1234225E0,1.686786E0,1.2948434E0,1.367513E-1,4.12562E-1,1.9120287E-2,-3.0600616E-1,-1.4466439E-1,-5.7944155E-1,-6.2763415E-2,9.286911E-2,6.873584E-1,9.839776E-1,1.2208006E0,3.11723E-1,1.7000269E0,9.473403E-1,2.5889882E-1,1.4301959E0,7.520672E-2,5.000401E-1,3.5042328E-1,6.872182E-1,1.2625347E-1,-3.659511E-1,-3.4048912E-1,6.046893E-1,-2.3083669E-1,2.4338487E-1,-6.1262673E-1,-3.416472E-1,8.910077E-2,6.2027782E-2,1.128034E-1,9.5898695E-3,1.3086517E-1,3.2056086E-2,1.321164E-1,-2.7351886E-2,9.034417E-2,1.7038108E-1,-4.9821734E-2,1.3586156E-1,1.4358638E-1,-5.558564E-2,3.541369E-2,1.5718281E-1,2.8517945E-2,-5.9585604E-3,6.38472E-2,-6.459709E-3,5.522983E-2,2.7440552E-2,8.7919414E-2,3.5317782E-2,2.0249175E-2,-3.1578418E-2,-4.1996256E-2,4.4919573E-2,-2.6644146E-2,-6.1729193E-2,-1.8891355E-2,1.5619479E-1,-6.567487E-2,-1.8886046E-2,-6.485561E-2,4.913203E-2,-6.238516E-2,-2.063425E-2,-4.6882827E-2,7.9620056E-2],"categories":[],"categories_nodes":[],"categories_segments":[],"categories_sizes":[],"default_left":[0,0,0,0,0,0,0,0,0,0,0,0,0,0,0,0,0,0,0,0,0,0,0,0,0,0,0,0,0,0,0,0,0,0,0,0,0,0,0,0,0,0,0,0,0,0,0,0,0,0,0,0,0,0,0,0,0,0,0,0,0,0,0,0,0,0,0,0,0,0,0,0,0,0,0,0,0,0,0,0,0,0,0,0,0,0,0],"id":1,"left_children":[1,3,5,7,9,11,13,15,17,19,21,23,-1,-1,25,27,29,31,33,35,37,39,41,43,45,-1,-1,47,49,51,53,55,57,59,61,63,65,67,69,71,73,75,77,79,81,83,85,-1,-1,-1,-1,-1,-1,-1,-1,-1,-1,-1,-1,-1,-1,-1,-1,-1,-1,-1,-1,-1,-1,-1,-1,-1,-1,-1,-1,-1,-1,-1,-1,-1,-1,-1,-1,-1,-1,-1,-1],"loss_changes":[9.350998E3,2.3021619E3,6.944873E1,5.7545703E2,3.1301447E2,5.394934E1,3.4360352E0,7.777612E1,8.199463E0,1.7534442E2,6.849493E1,1.4129523E2,0E0,0E0,1.1307245E1,8.366821E1,5.4451965E1,6.527588E0,1.0705963E1,9.6398315E1,8.4231995E1,7.604275E1,3.155651E1,3.5542458E1,1.9785645E1,0E0,0E0,4.9720337E1,1.6560217E2,4.8505676E1,4.5346474E1,7.3706055E-1,1.1160398E1,1.1025834E1,1.001416E1,1.045317E2,4.8935333E1,6.1819977E1,5.811331E1,4.8668537E1,1.7847061E1,1.9494637E1,2.8317877E1,1.5330009E1,4.3010323E1,9.969482E0,4.583987E1,0E0,0E0,0E0,0E0,0E0,0E0,0E0,0E0,0E0,0E0,0E0,0E0,0E0,0E0,0E0,0E0,0E0,0E0,0E0,0E0,0E0,0E0,0E0,0E0,0E0,0E0,0E0,0E0,0E0,0E0,0E0,0E0,0E0,0E0,0E0,0E0,0E0,0E0,0E0,0E0],"parents":[2147483647,0,0,1,1,2,2,3,3,4,4,5,5,6,6,7,7,8,8,9,9,10,10,11,11,14,14,15,15,16,16,17,17,18,18,19,19,20,20,21,21,22,22,23,23,24,24,27,27,28,28,29,29,30,30,31,31,32,32,33,33,34,34,35,35,36,36,37,37,38,38,39,39,40,40,41,41,42,42,43,43,44,44,45,45,46,46],"right_children":[2,4,6,8,10,12,14,16,18,20,22,24,-1,-1,26,28,30,32,34,36,38,40,42,44,46,-1,-1,48,50,52,54,56,58,60,62,64,66,68,70,72,74,76,78,80,82,84,86,-1,-1,-1,-1,-1,-1,-1,-1,-1,-1,-1,-1,-1,-1,-1,-1,-1,-1,-1,-1,-1,-1,-1,-1,-1,-1,-1,-1,-1,-1,-1,-1,-1,-1,-1,-1,-1,-1,-1,-1],"split_conditions":[0E0,5.2E-1,6.340318E-2,-1.2608131E0,-1.932937E0,7.405322E0,2.4E1,6.747999E-3,1E0,-3.5586808E0,1.943031E1,7E0,-6.662225E-2,-6.665763E-2,2.7523947E1,-2.6147342E0,4.417403E-1,2.0364402E-2,-3.3510306E-1,2.0442894E0,1E0,1.0670162E1,2.445891E0,1E0,7.9920626E-1,-6.2763415E-2,9.286911E-2,-4.2444468E0,7.0313737E-4,2E1,-4.1538E0,-1.5431987E1,3.423656E-1,-2.0266005E1,1.6E1,1.7115356E-2,2.848977E1,7.119486E0,1.6111869E0,2.4313285E0,2.2E1,1.8E1,1.2E1,9.633702E0,-8.079698E-1,3.2130302E1,2.5078737E1,8.910077E-2,6.2027782E-2,1.128034E-1,9.5898695E-3,1.3086517E-1,3.2056086E-2,1.321164E-1,-2.7351886E-2,9.034417E-2,1.7038108E-1,-4.9821734E-2,1.3586156E-1,1.4358638E-1,-5.558564E-2,3.541369E-2,1.5718281E-1,2.8517945E-2,-5.9585604E-3,6.38472E-2,-6.459709E-3,5.522983E-2,2.7440552E-2,8.7919414E-2,3.5317782E-2,2.0249175E-2,-3.1578418E-2,-4.1996256E-2,4.4919573E-2,-2.6644146E-2,-6.1729193E-2,-1.8891355E-2,1.5619479E-1,-6.567487E-2,-1.8886046E-2,-6.485561E-2,4.913203E-2,-6.238516E-2,-2.063425E-2,-4.6882827E-2,7.9620056E-2],"split_indices":[4,0,2,4,4,4,3,2,16,4,0,3,0,0,5,4,2,1,5,1,7,5,1,16,4,0,0,4,2,3,4,5,1,5,3,1,0,0,1,12,3,3,3,0,5,5,0,0,0,0,0,0,0,0,0,0,0,0,0,0,0,0,0,0,0,0,0,0,0,0,0,0,0,0,0,0,0,0,0,0,0,0,0,0,0,0,0],"split_type":[0,0,0,0,0,0,0,0,0,0,0,0,0,0,0,0,0,0,0,0,0,0,0,0,0,0,0,0,0,0,0,0,0,0,0,0,0,0,0,0,0,0,0,0,0,0,0,0,0,0,0,0,0,0,0,0,0,0,0,0,0,0,0,0,0,0,0,0,0,0,0,0,0,0,0,0,0,0,0,0,0,0,0,0,0,0,0],"sum_hessian":[3.3334824E4,1.8725715E4,1.4609108E4,6.616438E3,1.2109276E4,5.358663E3,9.250445E3,5.680024E3,9.364139E2,9.269371E3,2.8399053E3,3.6051658E3,1.7534971E3,9.226666E3,2.377977E1,4.9853696E3,6.946542E2,8.572162E2,7.919773E1,4.3147476E3,4.9546235E3,1.8417463E3,9.981589E2,1.0602585E3,2.5449075E3,1.864523E1,5.134541E0,3.6901272E3,1.2952426E3,6.196846E2,7.4969604E1,8.4072736E2,1.6488794E1,9.573881E0,6.962385E1,3.6909482E3,6.237995E2,4.0426475E3,9.11976E2,1.4416011E3,4.0014532E2,9.6245215E2,3.570675E1,8.6813794E2,1.9212054E2,2.2314958E3,3.134115E2,9.109147E2,2.7792126E3,1.1141346E3,1.8110797E2,5.640739E2,5.561063E1,2.711475E1,4.7854855E1,5.233193E0,8.354942E2,3.5514722E0,1.2937323E1,3.6547608E0,5.9191203E0,8.587361E0,6.1036488E1,1.4428989E3,2.2480493E3,5.0101276E2,1.2278673E2,1.1037953E3,2.938852E3,5.77913E2,3.3406302E2,1.230197E3,2.1140405E2,3.758491E2,2.4296213E1,7.6115826E2,2.012939E2,1.9903881E1,1.5802868E1,7.635665E1,7.917813E2,4.1349102E1,1.5077144E2,2.1707407E3,6.0755085E1,2.8251025E2,3.090126E1],"tree_param":{"num_deleted":"0","num_feature":"18","num_nodes":"87","size_leaf_vector":"1"}},{"base_weights":[-7.721234E-4,2.0045738E-1,-5.677075E-1,1.2253913E-1,5.113674E-1,-6.665525E-2,-6.854765E-2,4.7504883E-3,2.7293152E-1,3.2932487E-1,8.167391E-1,-4.962661E-1,-1.21872E-2,-2.0245123E-1,2.5897773E-2,4.10507E-1,1.7549029E-1,5.779058E-1,8.442426E-2,8.874783E-1,3.730884E-1,-6.6023566E-2,-8.011762E-2,-3.3671327E-2,1.1250314E0,-2.9528347E-1,1.9057666E-1,-1.4986735E-2,1.5367745E-1,1.8305142E-1,5.004412E-1,-9.056356E-2,2.6575693E-1,-2.4953344E-1,7.0310533E-1,2.6479358E-2,1.0092298E0,8.3719856E-1,1.2175057E0,6.935106E-1,-3.157114E-1,1.1879654E-1,-6.442713E-2,8.7520677E-1,-6.0921717E-2,1.8732475E-1,-5.6979563E-2,-3.445491E-2,5.1936843E-2,8.572073E-2,-2.0799762E-2,3.6670917E-3,-1.9302523E-2,6.7833304E-2,7.65156E-3,3.245027E-2,-1.7809298E-2,1.9560258E-1,4.724602E-2,-2.4326202E-2,3.5451025E-2,2.2778098E-2,6.932422E-2,-6.5373264E-2,-7.879457E-3,1.13890946E-1,5.993721E-2,-2.9939134E-2,8.693471E-3,1.3501923E-1,-6.199211E-2,9.095415E-2,2.084801E-2,1.1384516E-1,1.8026702E-1,-6.159416E-2,8.1415236E-2,-6.541812E-2,7.064987E-2,-5.604002E-2,1.19429864E-1,-5.0890036E-2,1.7247669E-3],"categories":[],"categories_nodes":[],"categories_segments":[],"categories_sizes":[],"default_left":[0,0,0,0,0,0,0,0,0,0,0,0,0,0,0,0,0,0,0,0,0,0,0,0,0,0,0,0,0,0,0,0,0,0,0,0,0,0,0,0,0,0,0,0,0,0,0,0,0,0,0,0,0,0,0,0,0,0,0,0,0,0,0,0,0,0,0,0,0,0,0,0,0,0,0,0,0,0,0,0,0,0,0],"id":2,"left_children":[1,3,5,7,9,-1,11,13,15,17,19,21,23,25,27,29,31,33,35,37,39,-1,41,43,45,47,49,51,53,55,57,59,61,63,65,67,69,71,73,75,77,-1,-1,79,81,-1,-1,-1,-1,-1,-1,-1,-1,-1,-1,-1,-1,-1,-1,-1,-1,-1,-1,-1,-1,-1,-1,-1,-1,-1,-1,-1,-1,-1,-1,-1,-1,-1,-1,-1,-1,-1,-1],"loss_changes":[3.7772175E3,5.918351E2,4.278186E2,3.4611786E2,2.7179346E2,0E0,3.4533604E1,4.8008682E1,1.149151E2,1.867399E2,5.690393E1,1.1256973E1,3.0935019E1,3.7085594E1,5.197469E1,7.2602844E1,1.2074332E2,1.579812E2,8.279653E1,2.4918335E1,5.6155624E1,0E0,3.5382812E1,3.0846869E1,3.096424E1,3.3125854E1,5.185897E1,6.9324104E1,9.750004E1,5.1657227E1,1.0261932E2,8.6637375E1,6.068091E1,1.3731082E1,5.8956726E1,2.8716095E1,5.152236E1,6.2039978E1,7.1750793E0,2.7893822E1,2.84821E1,0E0,0E0,1.733683E1,4.24775E1,0E0,0E0,0E0,0E0,0E0,0E0,0E0,0E0,0E0,0E0,0E0,0E0,0E0,0E0,0E0,0E0,0E0,0E0,0E0,0E0,0E0,0E0,0E0,0E0,0E0,0E0,0E0,0E0,0E0,0E0,0E0,0E0,0E0,0E0,0E0,0E0,0E0,0E0],"parents":[2147483647,0,0,1,1,2,2,3,3,4,4,6,6,7,7,8,8,9,9,10,10,11,11,12,12,13,13,14,14,15,15,16,16,17,17,18,18,19,19,20,20,22,22,23,23,24,24,25,25,26,26,27,27,28,28,29,29,30,30,31,31,32,32,33,33,34,34,35,35,36,36,37,37,38,38,39,39,40,40,43,43,44,44],"right_children":[2,4,6,8,10,-1,12,14,16,18,20,22,24,26,28,30,32,34,36,38,40,-1,42,44,46,48,50,52,54,56,58,60,62,64,66,68,70,72,74,76,78,-1,-1,80,82,-1,-1,-1,-1,-1,-1,-1,-1,-1,-1,-1,-1,-1,-1,-1,-1,-1,-1,-1,-1,-1,-1,-1,-1,-1,-1,-1,-1,-1,-1,-1,-1,-1,-1,-1,-1,-1,-1],"split_conditions":[2.6E0,2.0090902E1,5E0,5.961675E-1,1.2877468E0,-6.665525E-2,2.7141147E0,-9.606588E0,1.5132985E0,6E0,2.3963563E0,1E0,4.03791E-3,1.3869059E-1,6.557436E0,4.03791E-3,1.1E1,-1.7917799E1,1E0,2.2420895E0,2E0,-6.6023566E-2,1.0446682E0,6E0,1.0540335E1,2.9E1,1.0594739E1,1.2643758E-2,7.587788E0,1.1898203E1,5.6708235E-1,3E0,1.4771742E1,-2.9859428E1,2.142968E1,9E0,2.5078737E1,2.1601975E0,2.3E1,-2.280295E1,2.5659695E0,1.1879654E-1,-6.442713E-2,1.0351794E1,1.1E1,1.8732475E-1,-5.6979563E-2,-3.445491E-2,5.1936843E-2,8.572073E-2,-2.0799762E-2,3.6670917E-3,-1.9302523E-2,6.7833304E-2,7.65156E-3,3.245027E-2,-1.7809298E-2,1.9560258E-1,4.724602E-2,-2.4326202E-2,3.5451025E-2,2.2778098E-2,6.932422E-2,-6.5373264E-2,-7.879457E-3,1.13890946E-1,5.993721E-2,-2.9939134E-2,8.693471E-3,1.3501923E-1,-6.199211E-2,9.095415E-2,2.084801E-2,1.1384516E-1,1.8026702E-1,-6.159416E-2,8.1415236E-2,-6.541812E-2,7.064987E-2,-5.604002E-2,1.19429864E-1,-5.0890036E-2,1.7247669E-3],"split_indices":[9,0,3,9,9,0,9,5,9,3,9,17,1,1,0,1,3,5,10,1,7,0,0,3,0,7,0,0,0,0,1,7,5,5,0,3,0,1,3,5,1,0,0,0,3,0,0,0,0,0,0,0,0,0,0,0,0,0,0,0,0,0,0,0,0,0,0,0,0,0,0,0,0,0,0,0,0,0,0,0,0,0,0],"split_type":[0,0,0,0,0,0,0,0,0,0,0,0,0,0,0,0,0,0,0,0,0,0,0,0,0,0,0,0,0,0,0,0,0,0,0,0,0,0,0,0,0,0,0,0,0,0,0,0,0,0,0,0,0,0,0,0,0,0,0,0,0,0,0,0,0,0,0,0,0,0,0,0,0,0,0,0,0,0,0,0,0,0,0],"sum_hessian":[3.3106734E4,2.4434396E4,8.672338E3,1.9539299E4,4.895097E3,7.2384287E3,1.4339088E3,1.0958332E4,8.580967E3,3.068353E3,1.8267441E3,1.6583215E2,1.2680767E3,1.01361365E3,9.944719E3,3.5560315E3,5.024935E3,1.5218573E3,1.5464956E3,1.5744719E3,2.5227226E2,1.183668E2,4.746536E1,1.2456033E3,2.2473389E1,8.203517E2,1.9326195E2,7.5341763E3,2.4105422E3,1.00879694E3,2.5472344E3,1.2726849E3,3.7522505E3,1.9977296E2,1.3220844E3,1.456381E3,9.0114685E1,1.3696458E3,2.048261E2,1.7227168E2,8.000057E1,1.42197485E1,3.324561E1,3.524646E1,1.2103568E3,1.55585E1,6.9148893E0,7.7423035E2,4.6121326E1,7.197733E1,1.2128462E2,5.839953E3,1.694223E3,3.079019E2,2.1026404E3,7.2515155E2,2.8364542E2,4.66755E1,2.500559E3,9.480877E2,3.245972E2,3.447735E3,3.0451526E2,5.8312405E1,1.4146056E2,2.5208423E2,1.0700001E3,2.2702864E2,1.2293523E3,7.471112E1,1.5403569E1,1.2277681E3,1.418777E2,1.8319356E2,2.1632532E1,1.4116461E1,1.5815523E2,6.0444363E1,1.9556211E1,6.2150545E0,2.9031406E1,1.7919315E2,1.0311637E3],"tree_param":{"num_deleted":"0","num_feature":"18","num_nodes":"83","size_leaf_vector":"1"}},{"base_weights":[-3.791869E-2,-5.531321E-1,1.6069173E0,-6.478135E-1,-5.2355653E-1,-6.182467E-1,1.9955852E0,-6.570594E-1,1.342683E-1,-5.912423E-1,-4.5477167E-1,-6.659384E-2,-7.412718E-2,1.9997574E-1,-5.99244E-2,-6.665193E-2,-4.9526995E-1,1.7094557E-1,-6.504354E-2,-4.4352576E-1,-6.132713E-1,2.583672E-2,-5.0432163E-1,1.6896893E-1,-6.5600134E-2,1.3142208E0,-6.641032E-2,-4.8370358E-1,1.1724437E0,-6.558594E-1,-5.419486E-1,-3.4720767E-1,5.6892693E-1,-4.6169132E-1,-6.6622615E-2,1.880385E-1,-5.612227E-2,-5.2523416E-2,8.962758E-2,-5.871593E-2,1.9034958E-1,-6.664809E-2,-6.0257178E-2,1.670249E-1,-5.589357E-2,4.222187E-2,-5.3336848E-2,-2.6916644E-2,1.1079108E-1,-5.0504185E-2,6.966644E-2],"categories":[],"categories_nodes":[],"categories_segments":[],"categories_sizes":[],"default_left":[0,0,0,0,0,0,0,0,0,0,0,0,0,0,0,0,0,0,0,0,0,0,0,0,0,0,0,0,0,0,0,0,0,0,0,0,0,0,0,0,0,0,0,0,0,0,0,0,0,0,0],"id":3,"left_children":[1,3,5,7,9,11,13,15,17,19,21,-1,23,-1,-1,-1,25,-1,-1,27,29,31,33,-1,-1,35,-1,37,39,41,43,45,47,49,-1,-1,-1,-1,-1,-1,-1,-1,-1,-1,-1,-1,-1,-1,-1,-1,-1],"loss_changes":[2.7664793E4,6.91543E1,6.735498E3,4.2889404E1,8.784277E1,2.9940918E1,7.3103516E1,8.496826E0,8.746743E1,3.0685791E1,2.2397778E2,0E0,9.8153244E1,0E0,0E0,0E0,1.00783875E2,0E0,0E0,8.120587E1,2.4748291E1,1.7841605E2,5.841333E1,0E0,0E0,3.1144367E1,0E0,6.999136E1,4.03396E1,2.411377E0,1.1774158E2,7.499478E1,1.6238664E2,3.393479E2,0E0,0E0,0E0,0E0,0E0,0E0,0E0,0E0,0E0,0E0,0E0,0E0,0E0,0E0,0E0,0E0,0E0],"parents":[2147483647,0,0,1,1,2,2,3,3,4,4,5,5,6,6,7,7,8,8,9,9,10,10,12,12,16,16,19,19,20,20,21,21,22,22,25,25,27,27,28,28,29,29,30,30,31,31,32,32,33,33],"right_children":[2,4,6,8,10,12,14,16,18,20,22,-1,24,-1,-1,-1,26,-1,-1,28,30,32,34,-1,-1,36,-1,38,40,42,44,46,48,50,-1,-1,-1,-1,-1,-1,-1,-1,-1,-1,-1,-1,-1,-1,-1,-1,-1],"split_conditions":[3E0,4E-1,4.03791E-3,2.0018096E0,7.403627E0,2.8E1,4E0,2.3942034E0,4E0,7E-1,8.303495E0,-6.659384E-2,2.9E1,1.9997574E-1,-5.99244E-2,-6.665193E-2,2.3963563E0,1.7094557E-1,-6.504354E-2,6.7144436E-1,1.8E1,2.9526865E0,6.340318E-2,1.6896893E-1,-6.5600134E-2,-7.9582477E0,-6.641032E-2,2.6E0,2.3850529E-3,1E0,1E0,6.7144436E-1,3.185809E-3,4.711687E-4,-6.6622615E-2,1.880385E-1,-5.612227E-2,-5.2523416E-2,8.962758E-2,-5.871593E-2,1.9034958E-1,-6.664809E-2,-6.0257178E-2,1.670249E-1,-5.589357E-2,4.222187E-2,-5.3336848E-2,-2.6916644E-2,1.1079108E-1,-5.0504185E-2,6.966644E-2],"split_indices":[2,6,1,2,0,7,3,1,3,6,0,0,7,0,0,0,12,0,0,6,3,5,2,0,0,5,0,12,5,16,6,6,2,11,0,0,0,0,0,0,0,0,0,0,0,0,0,0,0,0,0],"split_type":[0,0,0,0,0,0,0,0,0,0,0,0,0,0,0,0,0,0,0,0,0,0,0,0,0,0,0,0,0,0,0,0,0,0,0,0,0,0,0,0,0,0,0,0,0,0,0,0,0,0,0],"sum_hessian":[3.264315E4,2.4857682E4,7.7854688E3,5.910838E3,1.8946844E4,1.1575466E3,6.6279224E3,5.8420596E3,6.877812E1,9.545153E3,9.40169E3,1.0638896E3,9.365689E1,6.61755E3,1.0372335E1,5.5158076E3,3.262518E2,2.2520401E1,4.625772E1,1.2420688E3,8.303085E3,8.785617E2,8.523128E3,2.2717705E1,7.0939186E1,2.721331E1,2.9903848E2,1.2126805E3,2.9388283E1,5.1927783E3,3.1103066E3,5.2092145E2,3.576403E2,6.750228E3,1.7729003E3,2.0941975E1,6.271336E0,1.1779227E3,3.4757847E1,8.643613E0,2.074467E1,4.3186E3,8.7417804E2,2.2915009E1,3.0873916E3,1.0113059E2,4.1979083E2,1.4010265E2,2.1753764E2,6.507346E3,2.4288185E2],"tree_param":{"num_deleted":"0","num_feature":"18","num_nodes":"51","size_leaf_vector":"1"}},{"base_weights":[-2.348529E-3,-1.629097E-1,1.5960128E0,-6.110364E-1,1.7017176E-2,9.7050065E-1,1.6576875E0,-6.2500817E-1,3.946169E-1,-3.637787E-1,1.4618632E0,1.5744938E0,2.9087195E-1,1.3467644E0,1.6747123E-1,1.6027471E-2,-6.30522E-1,-5.752389E-1,1.4374856E0,-4.1170213E-1,-2.1108803E-1,8.3600813E-1,1.6084051E0,1.1554258E0,1.676573E-1,9.949958E-2,1.6911058E-1,1.6664258E-1,7.067515E-1,-3.5950077E-1,9.8346E-1,-5.191259E-1,-6.502802E-1,-6.9869333E-3,-6.0956515E-2,1.713073E-1,1.0765077E0,-4.2394817E-1,-1.786698E-1,-2.3278584E-1,6.690925E-1,-1.7803855E-1,1.1192329E0,1.6471473E0,1.2620152E0,1.3651582E0,-3.3221065E-4,-2.1782203E-1,1.0824817E0,1.6643003E-2,1.31286E0,4.1257534E-2,-4.6932176E-2,1.608123E-1,-5.8127265E-2,-6.0367048E-2,-3.0590346E-2,-4.119053E-2,-6.509274E-2,-5.1874556E-2,1.343396E-1,-5.6150746E-2,-4.0393088E-2,-3.7077185E-2,-9.531152E-3,-1.7835435E-2,-3.9276212E-2,5.483039E-3,1.203108E-1,1.3309073E-1,-4.8490815E-2,1.6349012E-1,7.535525E-2,1.6546446E-1,1.2610433E-1,5.428322E-2,1.4580087E-1,1.6336523E-1,5.25467E-2,-5.4874755E-2,7.1942518E-3,-2.7873715E-2,1.6130345E-1,-1.8859318E-2,5.058114E-2,-3.4782298E-2,1.6362588E-1],"categories":[],"categories_nodes":[],"categories_segments":[],"categories_sizes":[],"default_left":[0,0,0,0,0,0,0,0,0,0,0,0,0,0,0,0,0,0,0,0,0,0,0,0,0,0,0,0,0,0,0,0,0,0,0,0,0,0,0,0,0,0,0,0,0,0,0,0,0,0,0,0,0,0,0,0,0,0,0,0,0,0,0,0,0,0,0,0,0,0,0,0,0,0,0,0,0,0,0,0,0,0,0,0,0,0,0],"id":4,"left_children":[1,3,5,7,9,11,13,15,17,19,21,23,25,27,-1,29,31,33,35,37,39,41,43,45,-1,47,-1,-1,49,51,53,55,57,-1,-1,-1,59,61,63,65,67,69,71,73,75,77,-1,79,81,83,85,-1,-1,-1,-1,-1,-1,-1,-1,-1,-1,-1,-1,-1,-1,-1,-1,-1,-1,-1,-1,-1,-1,-1,-1,-1,-1,-1,-1,-1,-1,-1,-1,-1,-1,-1,-1],"loss_changes":[8.536717E3,2.4373672E3,1.1526953E2,1.2194922E2,1.1867775E4,1.1227316E2,1.2064941E1,3.0263672E1,1.21457275E2,1.24766846E2,4.1104883E2,3.9969788E0,3.4686523E1,2.903067E1,0E0,2.7179098E1,1.8186035E1,9.7224617E-1,3.6233673E0,3.6937744E1,7.804172E1,2.4608539E2,4.6539062E1,7.8877373E0,0E0,3.6550453E1,0E0,0E0,2.1349058E1,4.7547126E0,2.1506292E1,2.2827301E1,7.34375E-1,0E0,0E0,0E0,1.2639233E1,3.36604E1,1.0338873E1,3.4557526E1,3.20591E1,8.7442566E1,1.2471692E2,7.0996094E0,5.132251E1,5.028019E0,0E0,8.578945E0,2.1229324E1,2.649967E0,1.5349514E1,0E0,0E0,0E0,0E0,0E0,0E0,0E0,0E0,0E0,0E0,0E0,0E0,0E0,0E0,0E0,0E0,0E0,0E0,0E0,0E0,0E0,0E0,0E0,0E0,0E0,0E0,0E0,0E0,0E0,0E0,0E0,0E0,0E0,0E0,0E0,0E0],"parents":[2147483647,0,0,1,1,2,2,3,3,4,4,5,5,6,6,7,7,8,8,9,9,10,10,11,11,12,12,13,13,15,15,16,16,17,17,18,18,19,19,20,20,21,21,22,22,23,23,25,25,28,28,29,29,30,30,31,31,32,32,36,36,37,37,38,38,39,39,40,40,41,41,42,42,43,43,44,44,45,45,47,47,48,48,49,49,50,50],"right_children":[2,4,6,8,10,12,14,16,18,20,22,24,26,28,-1,30,32,34,36,38,40,42,44,46,-1,48,-1,-1,50,52,54,56,58,-1,-1,-1,60,62,64,66,68,70,72,74,76,78,-1,80,82,84,86,-1,-1,-1,-1,-1,-1,-1,-1,-1,-1,-1,-1,-1,-1,-1,-1,-1,-1,-1,-1,-1,-1,-1,-1,-1,-1,-1,-1,-1,-1,-1,-1,-1,-1,-1,-1],"split_conditions":[3.1835718E0,4E0,5.579607E0,4E0,0E0,1.7066614E1,7.405322E0,8.016538E0,-1.2116917E0,-2.0273573E0,8E0,5E0,2.564073E1,2.0435482E1,1.6747123E-1,-7.4560696E-1,9.536852E-2,5.8829827E0,8.875475E-1,2.6E0,3.56428E0,1.2522072E-5,2.244477E1,2.4325063E0,1.676573E-1,8E0,1.6911058E-1,1.6664258E-1,1.2522072E-5,-2.7558913E0,1E0,-2.2198959E-1,4.060226E0,-6.9869333E-3,-6.0956515E-2,1.713073E-1,9.1051793E-1,8E0,5.0902414E0,1.6171455E1,-6.162311E0,9.256321E-2,1.0597649E0,2.6125956E1,1.1E1,1.4472107E1,-3.3221065E-4,2E0,1.2522072E-5,2.564073E1,2.0569126E1,4.1257534E-2,-4.6932176E-2,1.608123E-1,-5.8127265E-2,-6.0367048E-2,-3.0590346E-2,-4.119053E-2,-6.509274E-2,-5.1874556E-2,1.343396E-1,-5.6150746E-2,-4.0393088E-2,-3.7077185E-2,-9.531152E-3,-1.7835435E-2,-3.9276212E-2,5.483039E-3,1.203108E-1,1.3309073E-1,-4.8490815E-2,1.6349012E-1,7.535525E-2,1.6546446E-1,1.2610433E-1,5.428322E-2,1.4580087E-1,1.6336523E-1,5.25467E-2,-5.4874755E-2,7.1942518E-3,-2.7873715E-2,1.6130345E-1,-1.8859318E-2,5.058114E-2,-3.4782298E-2,1.6362588E-1],"split_indices":[4,3,4,7,4,0,4,0,4,4,3,3,0,0,0,4,11,0,1,12,12,12,0,1,0,3,0,0,12,4,7,4,5,0,0,0,1,3,0,0,5,5,1,5,3,0,0,3,12,0,0,0,0,0,0,0,0,0,0,0,0,0,0,0,0,0,0,0,0,0,0,0,0,0,0,0,0,0,0,0,0,0,0,0,0,0,0],"split_type":[0,0,0,0,0,0,0,0,0,0,0,0,0,0,0,0,0,0,0,0,0,0,0,0,0,0,0,0,0,0,0,0,0,0,0,0,0,0,0,0,0,0,0,0,0,0,0,0,0,0,0,0,0,0,0,0,0,0,0,0,0,0,0,0,0,0,0,0,0,0,0,0,0,0,0,0,0,0,0,0,0,0,0,0,0,0,0],"sum_hessian":[3.3262613E4,3.0227148E4,3.0354656E3,8.659046E3,2.1568102E4,2.740794E2,2.7613862E3,8.540864E3,1.1818163E2,1.7069924E4,4.4981787E3,1.4433952E2,1.2973987E2,1.4781548E2,2.6135708E3,7.266715E1,8.468197E3,6.1417027E1,5.6764606E1,1.2990408E4,4.0795154E3,8.548123E2,3.6433665E3,3.0877184E1,1.1346234E2,1.1514525E2,1.4594622E1,9.740536E1,5.041012E1,5.2725666E1,1.9941486E1,1.2805881E3,7.1876094E3,4.284655E0,5.713237E1,2.9908443E1,2.6856163E1,1.2340648E4,6.497604E2,3.9821973E3,9.731814E1,1.8662958E2,6.6818274E2,3.2732266E3,3.701398E2,2.6067207E1,4.809977E0,8.7557144E1,2.7588104E1,2.4129255E1,2.6280863E1,6.1091385E0,4.6616528E1,1.4277779E1,5.6637087E0,9.1534534E2,3.652428E2,2.1607374E1,7.166002E3,3.6601603E0,2.3196003E1,1.5635881E3,1.077706E4,1.9522046E2,4.5453992E2,2.973285E3,1.0089123E3,4.5858456E1,5.145968E1,3.0921038E1,1.5570853E2,2.756822E2,3.9250052E2,3.2074019E3,6.582463E1,8.018538E1,2.8995444E2,1.8944887E1,7.12232E0,4.0619267E1,4.6937878E1,7.81741E0,1.9770693E1,1.728653E1,6.842727E0,4.220984E0,2.2059877E1],"tree_param":{"num_deleted":"0","num_feature":"18","num_nodes":"87","size_leaf_vector":"1"}},{"base_weights":[-4.909625E-3,7.328123E-1,-2.4393086E-1,7.5965285E-1,7.679087E-2,-5.4428375E-1,-6.2853634E-2,5.4218006E-1,8.029856E-1,9.149612E-1,-2.6561562E-2,-2.0679964E-1,-6.498621E-1,1.0289157E-1,-1.0002547E-1,6.532959E-1,2.5440955E-1,7.2412425E-1,9.399431E-1,-5.5422794E-2,1.270796E0,7.617961E-2,-4.844324E-1,-4.889044E-1,-1.1526929E-1,-6.511225E-2,1.380586E-1,1.907459E-1,-7.796756E-2,-1.3934621E-1,8.64596E-2,-6.133437E-2,6.7065775E-1,-1.572421E-1,5.705515E-1,4.8206893E-1,7.90686E-1,9.690989E-1,3.3192867E-1,1.6174433E-1,9.4597924E-1,3.270467E-1,-1.488488E-1,-6.575469E-2,6.556044E-2,-5.035678E-1,5.295967E-1,-1.426944E-1,7.4292344E-1,-5.7306048E-2,1.4396562E-1,2.151976E-1,-5.0733894E-1,4.2310485E-1,-1.2789737E-1,-1.5421963E-1,1.8036588E-1,-3.506307E-1,1.315063E-1,6.383599E-2,1.2437232E-1,-4.448757E-2,6.673488E-2,3.340129E-2,1.2524E-1,8.364137E-2,1.4288147E-2,7.481275E-2,1.09602235E-1,8.498829E-2,1.1598877E-1,-2.2001361E-2,1.0280839E-1,1.3365793E-1,4.1874062E-2,9.652179E-2,-2.0532556E-2,-2.09477E-2,1.449219E-1,4.5442216E-2,-5.1849216E-2,-4.6844218E-2,1.267204E-1,-1.9382266E-2,1.1615973E-2,1.173106E-1,-6.1087526E-2,3.9805423E-2,1.1947492E-2,-6.457954E-2,7.835224E-2,-6.1260547E-2,6.1636936E-2,-3.478102E-2,4.504915E-3,-2.1282298E-2,-1.0805777E-2,1.2276036E-2,1.1930447E-1,-5.5672802E-2,9.5299676E-2,1.7596021E-2,-1.6926538E-2],"categories":[],"categories_nodes":[],"categories_segments":[],"categories_sizes":[],"default_left":[0,0,0,0,0,0,0,0,0,0,0,0,0,0,0,0,0,0,0,0,0,0,0,0,0,0,0,0,0,0,0,0,0,0,0,0,0,0,0,0,0,0,0,0,0,0,0,0,0,0,0,0,0,0,0,0,0,0,0,0,0,0,0,0,0,0,0,0,0,0,0,0,0,0,0,0,0,0,0,0,0,0,0,0,0,0,0,0,0,0,0,0,0,0,0,0,0,0,0,0,0,0,0],"id":5,"left_children":[1,3,5,7,9,11,13,15,17,19,21,23,25,27,29,31,33,35,37,-1,39,41,43,45,47,-1,49,51,53,55,57,-1,59,61,63,65,67,69,71,-1,73,75,77,-1,-1,79,81,83,85,-1,-1,87,89,91,93,95,97,99,101,-1,-1,-1,-1,-1,-1,-1,-1,-1,-1,-1,-1,-1,-1,-1,-1,-1,-1,-1,-1,-1,-1,-1,-1,-1,-1,-1,-1,-1,-1,-1,-1,-1,-1,-1,-1,-1,-1,-1,-1,-1,-1,-1,-1],"loss_changes":[5.852761E3,1.4287793E2,1.3633723E3,7.29624E1,2.7878786E1,3.3574365E2,9.637953E1,4.1308838E1,6.940039E1,1.9240011E1,1.3541267E1,5.7943176E1,7.272949E0,4.555471E1,9.371032E1,2.1020966E1,4.7501984E1,6.6068115E1,4.161084E1,0E0,1.4553261E0,1.3300939E1,1.0844872E1,8.481995E0,4.004049E1,0E0,1.2173593E1,3.30104E1,2.3470707E1,5.0207886E1,4.3836487E1,0E0,1.6134796E1,3.792978E1,3.2685654E1,1.0724539E2,4.1086914E1,5.0297363E1,4.267005E1,0E0,2.852479E0,3.8113777E1,1.2199478E1,0E0,0E0,8.006271E0,6.7101765E0,2.183611E1,3.1447075E1,0E0,0E0,3.2540695E1,1.2189402E1,1.7386482E1,3.2495117E1,2.722699E1,2.7098186E1,5.6365814E1,2.7014729E1,0E0,0E0,0E0,0E0,0E0,0E0,0E0,0E0,0E0,0E0,0E0,0E0,0E0,0E0,0E0,0E0,0E0,0E0,0E0,0E0,0E0,0E0,0E0,0E0,0E0,0E0,0E0,0E0,0E0,0E0,0E0,0E0,0E0,0E0,0E0,0E0,0E0,0E0,0E0,0E0,0E0,0E0,0E0,0E0],"parents":[2147483647,0,0,1,1,2,2,3,3,4,4,5,5,6,6,7,7,8,8,9,9,10,10,11,11,12,12,13,13,14,14,15,15,16,16,17,17,18,18,20,20,21,21,22,22,23,23,24,24,26,26,27,27,28,28,29,29,30,30,32,32,33,33,34,34,35,35,36,36,37,37,38,38,40,40,41,41,42,42,45,45,46,46,47,47,48,48,51,51,52,52,53,53,54,54,55,55,56,56,57,57,58,58],"right_children":[2,4,6,8,10,12,14,16,18,20,22,24,26,28,30,32,34,36,38,-1,40,42,44,46,48,-1,50,52,54,56,58,-1,60,62,64,66,68,70,72,-1,74,76,78,-1,-1,80,82,84,86,-1,-1,88,90,92,94,96,98,100,102,-1,-1,-1,-1,-1,-1,-1,-1,-1,-1,-1,-1,-1,-1,-1,-1,-1,-1,-1,-1,-1,-1,-1,-1,-1,-1,-1,-1,-1,-1,-1,-1,-1,-1,-1,-1,-1,-1,-1,-1,-1,-1,-1,-1],"split_conditions":[1.6480341E0,9.724533E-1,4E0,1.6E1,-7.471284E0,9.190331E-4,6.992527E0,1.4056952E-1,1E0,1E1,2.5806382E0,1.3739685E1,3.3246483E1,1.3483128E-2,6E0,1.6546897E-3,3.873267E-1,-1.6706911E-3,5.2E-1,-5.5422794E-2,1.3E1,9.2941684E-1,1E0,3.6004787E1,1.4E1,-6.511225E-2,1.00094326E-1,1.3174497E1,-1.2408855E1,2.2035961E1,9.181539E0,-6.133437E-2,2E0,7.0185347E0,2.5289637E-1,1.8E1,2.7081268E-2,2.8004388E-5,7.5219065E-1,1.6174433E-1,-1.7000328E1,1.8999171E0,8.5752145E-5,-6.575469E-2,6.556044E-2,2.2692907E0,2E0,1E0,1.9657642E0,-5.7306048E-2,1.4396562E-1,8.16254E-1,2.6E0,2.6213455E0,1.0744529E0,1.5E1,2E0,2.3E1,3.0579848E-2,6.383599E-2,1.2437232E-1,-4.448757E-2,6.673488E-2,3.340129E-2,1.2524E-1,8.364137E-2,1.4288147E-2,7.481275E-2,1.09602235E-1,8.498829E-2,1.1598877E-1,-2.2001361E-2,1.0280839E-1,1.3365793E-1,4.1874062E-2,9.652179E-2,-2.0532556E-2,-2.09477E-2,1.449219E-1,4.5442216E-2,-5.1849216E-2,-4.6844218E-2,1.267204E-1,-1.9382266E-2,1.1615973E-2,1.173106E-1,-6.1087526E-2,3.9805423E-2,1.1947492E-2,-6.457954E-2,7.835224E-2,-6.1260547E-2,6.1636936E-2,-3.478102E-2,4.504915E-3,-2.1282298E-2,-1.0805777E-2,1.2276036E-2,1.1930447E-1,-5.5672802E-2,9.5299676E-2,1.7596021E-2,-1.6926538E-2],"split_indices":[0,1,3,3,5,11,0,5,17,3,1,0,0,11,7,6,6,5,0,0,3,6,16,5,7,0,6,5,5,5,0,0,7,5,11,3,0,0,11,0,5,1,11,0,0,0,3,16,1,0,0,6,12,0,5,3,7,3,11,0,0,0,0,0,0,0,0,0,0,0,0,0,0,0,0,0,0,0,0,0,0,0,0,0,0,0,0,0,0,0,0,0,0,0,0,0,0,0,0,0,0,0,0],"split_type":[0,0,0,0,0,0,0,0,0,0,0,0,0,0,0,0,0,0,0,0,0,0,0,0,0,0,0,0,0,0,0,0,0,0,0,0,0,0,0,0,0,0,0,0,0,0,0,0,0,0,0,0,0,0,0,0,0,0,0,0,0,0,0,0,0,0,0,0,0,0,0,0,0,0,0,0,0,0,0,0,0,0,0,0,0,0,0,0,0,0,0,0,0,0,0,0,0,0,0,0,0,0,0],"sum_hessian":[3.319013E4,8.1214307E3,2.5068697E4,7.801911E3,3.1951974E2,9.427967E3,1.564073E4,1.2989128E3,6.5029985E3,3.431838E1,2.8520135E2,2.247543E3,7.180424E3,2.8643672E3,1.2776363E4,9.35914E2,3.629988E2,4.131221E3,2.3717773E3,6.527737E0,2.779064E1,2.334361E2,5.1765266E1,5.492553E2,1.6982877E3,7.1692563E3,1.1167281E1,1.928214E3,9.361531E2,1.05522E4,2.2241633E3,1.2113103E1,9.238009E2,1.5776184E2,2.0523697E2,8.931131E2,3.238108E3,2.2625251E3,1.09252266E2,1.136954E1,1.6421099E1,1.1037661E2,1.2305948E2,4.5384563E1,6.380704E0,5.4205505E2,7.200233E0,1.6466173E3,5.1670418E1,7.534018E0,3.633263E0,1.8637671E3,6.444683E1,8.3972015E1,8.521811E2,1.0083914E4,4.6828613E2,2.0696526E2,2.0171981E3,8.766798E2,4.712111E1,1.17394196E2,4.036765E1,1.5359142E2,5.1645557E1,4.359358E2,4.5717728E2,2.8453005E3,3.9280734E2,1.396123E3,8.6640204E2,6.123935E1,4.8012917E1,8.442112E0,7.978987E0,4.991579E1,6.046082E1,1.19458885E2,3.6005912E0,7.7605166E0,5.3429456E2,3.1573884E0,4.042845E0,1.3755579E3,2.7105945E2,3.936815E1,1.230227E1,6.3896497E2,1.2248021E3,5.8725216E1,5.7216177E0,1.278258E1,7.118943E1,3.7496085E2,4.7722025E2,4.440648E3,5.6432666E3,4.4423605E2,2.4050083E1,1.7927274E2,2.7692522E1,1.7580992E3,2.5909885E2],"tree_param":{"num_deleted":"0","num_feature":"18","num_nodes":"103","size_leaf_vector":"1"}},{"base_weights":[-1.3942418E-2,1.7220803E-1,-5.7637554E-1,4.275181E-2,3.208069E-1,-6.4756453E-1,-3.2110598E-2,3.163079E-1,-2.5471149E-2,2.4123263E-1,6.189563E-1,-6.494143E-1,1.1276763E-1,1.791325E-1,-6.5079786E-2,4.5249075E-2,5.722978E-1,-6.9944975E-3,-3.4959134E-1,3.0382526E-1,7.808304E-2,8.406501E-1,4.844937E-1,-6.5125436E-2,7.523159E-2,1.366776E-1,-3.4759974E-1,-1.7527124E-1,4.2250785E-1,7.9134434E-1,-8.307361E-3,3.0560832E-2,-1.3435496E-1,2.8502992E-1,-5.1023585E-1,1.4374907E-1,3.5577607E-1,-1.8745947E-1,1.8932553E-1,2.089147E-1,9.538134E-1,2.711719E-1,6.8465054E-1,1.338094E-1,-6.0142357E-2,-6.454251E-2,1.9799028E-1,-4.2362309E-1,1.9990543E-1,-3.2270692E-2,1.5771365E-2,-2.1305619E-2,6.4488314E-2,9.599101E-2,4.21312E-2,2.245072E-2,-4.5078397E-2,5.3700287E-4,3.7829783E-2,2.3348494E-3,-2.4267552E-2,-2.376687E-2,9.6246146E-2,-5.5663735E-2,-1.7640498E-2,-5.6033112E-2,2.1105302E-2,3.2106265E-2,1.1959515E-1,-3.8250428E-2,5.353406E-2,2.3809161E-2,-1.3733298E-2,5.486196E-2,-3.893351E-2,9.9700734E-2,-6.3826166E-2,-8.415587E-3,4.587937E-2,7.640583E-2,6.864487E-5,7.773303E-2,1.2379556E-2,2.6186744E-2,-4.8861366E-2,-6.361435E-2,1.19500615E-1],"categories":[],"categories_nodes":[],"categories_segments":[],"categories_sizes":[],"default_left":[0,0,0,0,0,0,0,0,0,0,0,0,0,0,0,0,0,0,0,0,0,0,0,0,0,0,0,0,0,0,0,0,0,0,0,0,0,0,0,0,0,0,0,0,0,0,0,0,0,0,0,0,0,0,0,0,0,0,0,0,0,0,0,0,0,0,0,0,0,0,0,0,0,0,0,0,0,0,0,0,0,0,0,0,0,0,0],"id":6,"left_children":[1,3,5,7,9,11,13,15,17,19,21,23,-1,-1,25,27,29,31,33,35,37,39,41,-1,43,45,47,49,51,53,55,57,59,61,63,65,67,69,71,73,75,77,79,-1,-1,-1,81,83,85,-1,-1,-1,-1,-1,-1,-1,-1,-1,-1,-1,-1,-1,-1,-1,-1,-1,-1,-1,-1,-1,-1,-1,-1,-1,-1,-1,-1,-1,-1,-1,-1,-1,-1,-1,-1,-1,-1],"loss_changes":[3.4896997E3,4.8169324E2,3.210569E2,2.4983463E2,2.7636768E2,2.475293E1,5.76531E1,1.8532623E2,6.41223E1,9.393402E1,7.264899E1,9.87085E0,0E0,0E0,5.387219E1,1.0817808E2,1.7482748E2,4.8501213E1,5.9041924E1,5.5213684E1,7.5478745E1,6.583301E1,6.508557E1,0E0,1.7375671E1,2.6513515E1,1.6495678E1,4.0345222E1,6.7979904E1,6.169171E1,3.898484E1,6.853897E1,3.9475784E1,4.178989E1,6.974457E0,7.74151E1,1.4589258E2,1.0652561E2,2.8727524E1,2.9084576E1,5.4607788E1,4.9608772E1,4.2771484E1,0E0,0E0,0E0,2.1821115E1,1.5574551E1,4.118684E1,0E0,0E0,0E0,0E0,0E0,0E0,0E0,0E0,0E0,0E0,0E0,0E0,0E0,0E0,0E0,0E0,0E0,0E0,0E0,0E0,0E0,0E0,0E0,0E0,0E0,0E0,0E0,0E0,0E0,0E0,0E0,0E0,0E0,0E0,0E0,0E0,0E0,0E0],"parents":[2147483647,0,0,1,1,2,2,3,3,4,4,5,5,6,6,7,7,8,8,9,9,10,10,11,11,14,14,15,15,16,16,17,17,18,18,19,19,20,20,21,21,22,22,24,24,25,25,26,26,27,27,28,28,29,29,30,30,31,31,32,32,33,33,34,34,35,35,36,36,37,37,38,38,39,39,40,40,41,41,42,42,46,46,47,47,48,48],"right_children":[2,4,6,8,10,12,14,16,18,20,22,24,-1,-1,26,28,30,32,34,36,38,40,42,-1,44,46,48,50,52,54,56,58,60,62,64,66,68,70,72,74,76,78,80,-1,-1,-1,82,84,86,-1,-1,-1,-1,-1,-1,-1,-1,-1,-1,-1,-1,-1,-1,-1,-1,-1,-1,-1,-1,-1,-1,-1,-1,-1,-1,-1,-1,-1,-1,-1,-1,-1,-1,-1,-1,-1,-1],"split_conditions":[3E0,5.961675E-1,1E1,3E-1,2.0435482E1,4.6E1,1E0,2.5326023E-2,2.9848045E-1,2.0031812E0,4E-1,1.7221668E1,1.1276763E-1,1.791325E-1,2.6342704E0,2.2820911E1,1.2522072E-5,5.5337167E-1,-4.2051926E-1,4.03791E-3,1.4E1,1.2092228E0,2.9455132E1,-6.5125436E-2,1.7865377E1,3.3771732E-1,1.9687168E1,1.5E1,-1.7379753E1,2.3280422E1,8.930853E-3,1.2E1,5.104115E-4,-6.6243935E-1,2E1,5.656378E-2,9.468842E-3,1.7785538E1,1.4955273E1,8.26243E-1,2.5104249E0,-1.4143004E0,2.3963563E0,1.338094E-1,-6.0142357E-2,-6.454251E-2,3.3539472E0,1.2E1,3.7502357E-1,-3.2270692E-2,1.5771365E-2,-2.1305619E-2,6.4488314E-2,9.599101E-2,4.21312E-2,2.245072E-2,-4.5078397E-2,5.3700287E-4,3.7829783E-2,2.3348494E-3,-2.4267552E-2,-2.376687E-2,9.6246146E-2,-5.5663735E-2,-1.7640498E-2,-5.6033112E-2,2.1105302E-2,3.2106265E-2,1.1959515E-1,-3.8250428E-2,5.353406E-2,2.3809161E-2,-1.3733298E-2,5.486196E-2,-3.893351E-2,9.9700734E-2,-6.3826166E-2,-8.415587E-3,4.587937E-2,7.640583E-2,6.864487E-5,7.773303E-2,1.2379556E-2,2.6186744E-2,-4.8861366E-2,-6.361435E-2,1.19500615E-1],"split_indices":[2,9,3,6,0,7,10,15,11,1,6,15,0,0,15,0,9,15,15,1,3,9,0,0,15,6,15,3,15,0,11,7,9,15,3,11,11,0,0,9,9,15,9,0,0,0,9,3,11,0,0,0,0,0,0,0,0,0,0,0,0,0,0,0,0,0,0,0,0,0,0,0,0,0,0,0,0,0,0,0,0,0,0,0,0,0,0],"split_type":[0,0,0,0,0,0,0,0,0,0,0,0,0,0,0,0,0,0,0,0,0,0,0,0,0,0,0,0,0,0,0,0,0,0,0,0,0,0,0,0,0,0,0,0,0,0,0,0,0,0,0,0,0,0,0,0,0,0,0,0,0,0,0,0,0,0,0,0,0,0,0,0,0,0,0,0,0,0,0,0,0,0,0,0,0,0,0],"sum_hessian":[3.332903E4,2.504148E4,8.287551E3,1.3383775E4,1.1657705E4,7.3286064E3,9.589441E2,2.6711196E3,1.0712656E4,9.203494E3,2.4542114E3,7.321668E3,6.9384255E0,1.6029507E1,9.429146E2,1.2981359E3,1.3729838E3,1.0136168E4,5.764878E2,6.6505312E3,2.552963E3,9.242948E2,1.5299165E3,7.303362E3,1.8305805E1,5.501766E2,3.9273804E2,8.19425E2,4.7871085E2,9.967473E2,3.762364E2,7.8278975E3,2.308271E3,1.16168976E2,4.6031882E2,1.6309064E3,5.0196245E3,7.5327234E2,1.7996906E3,1.4098337E2,7.8331146E2,7.4198413E2,7.879324E2,6.097021E0,1.2208785E1,3.9184364E1,5.109922E2,3.4521277E2,4.752529E1,5.681822E2,2.5124278E2,1.2397472E2,3.5473615E2,6.835132E2,3.1323416E2,2.4669917E2,1.2953723E2,7.3003477E3,5.275496E2,9.3983307E2,1.3684379E3,6.585643E1,5.0312542E1,4.03295E2,5.7023792E1,1.4152927E2,1.4893772E3,4.8219E3,1.9772466E2,5.9367944E2,1.5959294E2,1.5664205E3,2.3327E2,9.008207E1,5.0901295E1,7.630461E2,2.0265337E1,2.5640665E2,4.855775E2,7.057339E2,8.219851E1,5.6783195E1,4.5420898E2,2.9499355E1,3.157134E2,2.5968063E1,2.1557228E1],"tree_param":{"num_deleted":"0","num_feature":"18","num_nodes":"87","size_leaf_vector":"1"}},{"base_weights":[6.4222272E-3,-5.4041415E-1,1.3755844E0,-4.9625897E-1,-6.239874E-1,-6.0463035E-1,1.6463792E0,-5.861371E-1,-3.9956358E-1,-6.3003033E-1,-3.774478E-1,-6.520034E-2,-1.042727E-2,1.6491234E-1,-5.846361E-2,5.832061E-1,-5.926604E-1,1.4226843E-1,-4.6623987E-1,-5.6791824E-1,-6.506735E-2,-6.487023E-2,1.6250825E-1,1.2325747E0,-6.392168E-2,-6.252302E-2,1.9099434E-1,-5.98829E-1,-6.351102E-2,-1.603171E-1,4.9629074E-1,-5.323146E-1,-4.0290758E-2,-6.195654E-1,-1.3180809E-1,1.6413367E-1,-5.6189794E-2,-6.2170584E-2,-4.690596E-2,6.869263E-2,-6.453371E-2,7.476028E-2,-4.8607506E-2,-6.537611E-2,1.0332819E-1,-5.9391033E-2,-3.376324E-2,-6.5354444E-2,2.5539786E-2,-6.4909376E-2,-5.7283133E-2,-6.459248E-2,1.1578301E-1],"categories":[],"categories_nodes":[],"categories_segments":[],"categories_sizes":[],"default_left":[0,0,0,0,0,0,0,0,0,0,0,0,0,0,0,0,0,0,0,0,0,0,0,0,0,0,0,0,0,0,0,0,0,0,0,0,0,0,0,0,0,0,0,0,0,0,0,0,0,0,0,0,0],"id":7,"left_children":[1,3,5,7,9,11,13,15,17,19,21,-1,23,-1,-1,25,27,29,31,33,-1,-1,-1,35,-1,-1,-1,37,39,41,43,45,47,49,51,-1,-1,-1,-1,-1,-1,-1,-1,-1,-1,-1,-1,-1,-1,-1,-1,-1,-1],"loss_changes":[2.4844662E4,8.708252E1,5.0796133E3,1.3455615E2,1.1866943E1,3.2017303E1,5.208008E1,6.168579E1,2.7035168E2,9.759277E0,1.0899623E2,0E0,6.743596E1,0E0,0E0,7.351734E1,2.5999756E1,8.7982376E1,1.8739966E2,4.496643E1,0E0,0E0,0E0,2.2272144E1,0E0,0E0,0E0,2.3066406E1,4.1245655E1,1.3132095E2,2.3440332E2,6.885535E1,1.6265152E2,1.9771729E0,1.423216E2,0E0,0E0,0E0,0E0,0E0,0E0,0E0,0E0,0E0,0E0,0E0,0E0,0E0,0E0,0E0,0E0,0E0,0E0],"parents":[2147483647,0,0,1,1,2,2,3,3,4,4,5,5,6,6,7,7,8,8,9,9,10,10,12,12,15,15,16,16,17,17,18,18,19,19,23,23,27,27,28,28,29,29,30,30,31,31,32,32,33,33,34,34],"right_children":[2,4,6,8,10,12,14,16,18,20,22,-1,24,-1,-1,26,28,30,32,34,-1,-1,-1,36,-1,-1,-1,38,40,42,44,46,48,50,52,-1,-1,-1,-1,-1,-1,-1,-1,-1,-1,-1,-1,-1,-1,-1,-1,-1,-1],"split_conditions":[3E0,-9.930484E-1,4.03791E-3,7.403627E0,2.0018096E0,2.8E1,4E0,-2.4858965E1,8.570562E0,1.2522072E-5,4.03791E-3,-6.520034E-2,2.9E1,1.6491234E-1,-5.846361E-2,-1.731144E0,2.5806382E0,2.9526865E0,-1.630763E0,2E0,-6.506735E-2,-6.487023E-2,1.6250825E-1,7.2951055E0,-6.392168E-2,-6.252302E-2,1.9099434E-1,1.9E1,7.200357E-1,1.6E1,9.097701E-6,2.3796291E1,6.7144436E-1,3.4662578E-1,5.7802737E-1,1.6413367E-1,-5.6189794E-2,-6.2170584E-2,-4.690596E-2,6.869263E-2,-6.453371E-2,7.476028E-2,-4.8607506E-2,-6.537611E-2,1.0332819E-1,-5.9391033E-2,-3.376324E-2,-6.5354444E-2,2.5539786E-2,-6.4909376E-2,-5.7283133E-2,-6.459248E-2,1.1578301E-1],"split_indices":[2,4,1,0,2,7,3,5,0,12,1,0,7,0,0,4,1,5,4,7,0,0,0,0,0,0,0,3,0,3,2,0,6,5,4,0,0,0,0,0,0,0,0,0,0,0,0,0,0,0,0,0,0],"split_type":[0,0,0,0,0,0,0,0,0,0,0,0,0,0,0,0,0,0,0,0,0,0,0,0,0,0,0,0,0,0,0,0,0,0,0,0,0,0,0,0,0,0,0,0,0,0,0,0,0,0,0,0,0],"sum_hessian":[3.318129E4,2.371155E4,9.46974E3,1.5519892E4,8.191659E3,1.1390101E3,8.3307295E3,8.0403286E3,7.479563E3,7.9937627E3,1.9789655E2,1.0546614E3,8.434871E1,8.320801E3,9.928939E0,4.4029457E1,7.9962993E3,8.1927216E2,6.660291E3,2.0023529E3,5.99141E3,1.7492758E2,2.2968971E1,2.7959204E1,5.6389503E1,2.3279284E1,2.0750172E1,7.90384E3,9.245917E1,4.418685E2,3.7740366E2,5.7654497E3,8.9484125E2,1.7897485E3,2.1260434E2,2.2886877E1,5.0723267E0,6.7154253E3,1.1884147E3,4.022482E1,5.223435E1,1.1625429E2,3.2561423E2,1.2000029E2,2.5740335E2,4.37779E3,1.3876595E3,2.9081772E2,6.040235E2,1.0875588E3,7.0218964E2,1.5241893E2,6.0185413E1],"tree_param":{"num_deleted":"0","num_feature":"18","num_nodes":"53","size_leaf_vector":"1"}},{"base_weights":[-5.889456E-3,-1.58556E-1,1.407612E0,-5.2121556E-1,6.309755E-2,8.573822E-1,1.4617084E0,-5.515841E-1,2.1684986E-1,-3.4881055E-1,1.3415594E0,1.2846944E0,1.7285323E-1,1.2425145E0,1.473328E-1,-4.1898417E-1,-6.276784E-1,1.5027964E-1,-1.20560184E-1,-3.9113244E-1,-2.036206E-1,1.446264E0,1.1821367E0,1.4754012E-1,9.654438E-1,1.4237318E-2,1.552484E-1,1.4652748E-1,7.465532E-1,-4.4367066E-1,3.165298E-2,-6.029292E-2,-6.372586E-2,1.339136E0,-3.0569497E-1,-4.0512052E-1,-1.0257552E-1,-2.3115517E-1,2.6060456E-1,1.4530741E0,8.0257237E-1,1.2318664E0,-5.5249494E-2,1.1455964E0,-3.673202E-1,-1.4461854E-1,1.4033806E-1,1.5917972E-1,1.178223E0,-3.347241E-2,-5.1904667E-2,1.2554967E-1,-3.4087956E-2,-1.3334629E-2,1.2841104E-1,-5.3364325E-2,1.5739572E-1,-3.7591692E-2,1.424136E-1,-3.8341623E-2,-4.9041532E-2,-1.3127732E-2,1.6608949E-1,-2.7575959E-2,-8.951563E-3,9.232465E-3,9.175903E-2,1.4986044E-1,1.4120086E-1,1.498714E-1,-8.798212E-3,1.475989E-1,1.0925595E-1,-4.821417E-2,6.4984374E-2,1.48383E-1,5.912372E-2,-5.0816335E-2,-1.6519038E-2,-3.3312004E-2,7.291069E-2,5.0560202E-2,-3.0598312E-3,-3.3532303E-2,1.4507301E-1],"categories":[],"categories_nodes":[],"categories_segments":[],"categories_sizes":[],"default_left":[0,0,0,0,0,0,0,0,0,0,0,0,0,0,0,0,0,0,0,0,0,0,0,0,0,0,0,0,0,0,0,0,0,0,0,0,0,0,0,0,0,0,0,0,0,0,0,0,0,0,0,0,0,0,0,0,0,0,0,0,0,0,0,0,0,0,0,0,0,0,0,0,0,0,0,0,0,0,0,0,0,0,0,0,0],"id":8,"left_children":[1,3,5,7,9,11,13,15,17,19,21,23,25,27,-1,29,31,-1,33,35,37,39,41,-1,43,45,-1,-1,47,49,51,53,-1,55,57,59,61,63,65,67,69,71,73,75,77,79,-1,81,83,-1,-1,-1,-1,-1,-1,-1,-1,-1,-1,-1,-1,-1,-1,-1,-1,-1,-1,-1,-1,-1,-1,-1,-1,-1,-1,-1,-1,-1,-1,-1,-1,-1,-1,-1,-1],"loss_changes":[7.1744175E3,2.4121284E3,9.497949E1,2.5528882E2,9.808352E3,8.5244675E1,5.408203E0,1.09951904E2,1.9576134E2,8.6420166E1,7.37876E1,9.287598E0,2.4709469E1,1.5840408E1,0E0,4.4443176E1,3.763916E1,0E0,9.696603E1,4.3927124E1,4.073085E1,1.0596191E1,1.1125952E2,0E0,1.7398201E1,2.3075699E1,0E0,0E0,1.2433737E1,3.0807495E1,9.5328705E1,1.1506404E1,0E0,1.8703598E1,3.9094795E1,1.8979126E1,2.5670744E1,1.8921112E1,1.954163E1,2.649414E0,1.9501245E1,5.7148926E1,2.1553215E1,1.0599052E1,1.0699773E-1,1.5576776E1,0E0,1.5463959E0,1.2452526E1,0E0,0E0,0E0,0E0,0E0,0E0,0E0,0E0,0E0,0E0,0E0,0E0,0E0,0E0,0E0,0E0,0E0,0E0,0E0,0E0,0E0,0E0,0E0,0E0,0E0,0E0,0E0,0E0,0E0,0E0,0E0,0E0,0E0,0E0,0E0,0E0],"parents":[2147483647,0,0,1,1,2,2,3,3,4,4,5,5,6,6,7,7,8,8,9,9,10,10,11,11,12,12,13,13,15,15,16,16,18,18,19,19,20,20,21,21,22,22,24,24,25,25,28,28,29,29,30,30,31,31,33,33,34,34,35,35,36,36,37,37,38,38,39,39,40,40,41,41,42,42,43,43,44,44,45,45,47,47,48,48],"right_children":[2,4,6,8,10,12,14,16,18,20,22,24,26,28,-1,30,32,-1,34,36,38,40,42,-1,44,46,-1,-1,48,50,52,54,-1,56,58,60,62,64,66,68,70,72,74,76,78,80,-1,82,84,-1,-1,-1,-1,-1,-1,-1,-1,-1,-1,-1,-1,-1,-1,-1,-1,-1,-1,-1,-1,-1,-1,-1,-1,-1,-1,-1,-1,-1,-1,-1,-1,-1,-1,-1,-1],"split_conditions":[3.1835718E0,5E-1,5.579607E0,7.9920626E-1,0E0,2.0435482E1,7.405322E0,3E0,1.2208377E1,-1.9025652E0,1.4624079E1,1.2621173E1,1.67974E0,2.0435482E1,1.473328E-1,0E0,4.03791E-3,1.5027964E-1,-2.5490704E0,2.6E0,2.5446181E0,2.6125956E1,4.7890744E-1,1.4754012E-1,2.445891E0,9.097701E-6,1.552484E-1,1.4652748E-1,1.2522072E-5,1.2115163E1,2.5326023E-2,-2.9688102E-1,-6.372586E-2,1.228104E1,6.747999E-3,1.4379071E1,-2.0900788E0,4.0457207E-1,1E0,0E0,2.3390834E0,-1.4143004E0,4.5250546E-2,5.767545E0,1.2706976E1,2.564073E1,1.4033806E-1,2.1820043E-1,2.0569126E1,-3.347241E-2,-5.1904667E-2,1.2554967E-1,-3.4087956E-2,-1.3334629E-2,1.2841104E-1,-5.3364325E-2,1.5739572E-1,-3.7591692E-2,1.424136E-1,-3.8341623E-2,-4.9041532E-2,-1.3127732E-2,1.6608949E-1,-2.7575959E-2,-8.951563E-3,9.232465E-3,9.175903E-2,1.4986044E-1,1.4120086E-1,1.498714E-1,-8.798212E-3,1.475989E-1,1.0925595E-1,-4.821417E-2,6.4984374E-2,1.48383E-1,5.912372E-2,-5.0816335E-2,-1.6519038E-2,-3.3312004E-2,7.291069E-2,5.0560202E-2,-3.0598312E-3,-3.3532303E-2,1.4507301E-1],"split_indices":[4,6,4,4,4,0,4,2,0,4,0,0,9,0,0,4,1,0,5,9,9,5,4,0,1,2,0,0,9,0,5,4,0,0,2,0,4,5,17,5,9,5,9,5,0,0,0,6,0,0,0,0,0,0,0,0,0,0,0,0,0,0,0,0,0,0,0,0,0,0,0,0,0,0,0,0,0,0,0,0,0,0,0,0,0],"split_type":[0,0,0,0,0,0,0,0,0,0,0,0,0,0,0,0,0,0,0,0,0,0,0,0,0,0,0,0,0,0,0,0,0,0,0,0,0,0,0,0,0,0,0,0,0,0,0,0,0,0,0,0,0,0,0,0,0,0,0,0,0,0,0,0,0,0,0,0,0,0,0,0,0,0,0,0,0,0,0,0,0,0,0,0,0],"sum_hessian":[3.3245094E4,3.00053E4,3.239792E3,1.138188E4,1.8623422E4,2.9168475E2,2.9481072E3,1.093244E4,4.4943988E2,1.40857705E4,4.5376504E3,1.7895226E2,1.12732506E2,1.542806E2,2.7938267E3,3.9890452E3,6.943395E3,9.275852E1,3.5668137E2,1.0904733E4,3.181037E3,2.7335984E3,1.8040522E3,1.0956695E2,6.93853E1,1.0207927E2,1.0653234E1,1.0497512E2,4.9305473E1,3.7820942E3,2.0695082E2,1.1558565E2,6.827809E3,3.9384064E1,3.172973E2,1.039984E4,5.0489304E2,3.003602E3,1.7743504E2,2.7035825E3,3.0015816E1,1.7344318E3,6.9620445E1,6.131296E1,8.07234E0,9.234324E1,9.73603E0,2.1563887E1,2.7741585E1,1.5493989E3,2.2326953E3,4.7803856E1,1.5914696E2,1.1055349E2,5.0321565E0,4.1987977E0,3.5185265E1,3.057269E2,1.1570398E1,8.295593E3,2.1042476E3,4.9777365E2,7.1193776E0,2.2829985E3,7.206035E2,1.422834E2,3.515164E1,1.2641077E3,1.4394749E3,1.6526518E1,1.3489297E1,6.26404E2,1.1080278E3,4.3650608E1,2.5969833E1,3.6926064E1,2.4386898E1,3.5735388E0,4.4988008E0,7.6559204E1,1.578404E1,7.2296267E0,1.433426E1,4.141513E0,2.3600073E1],"tree_param":{"num_deleted":"0","num_feature":"18","num_nodes":"85","size_leaf_vector":"1"}},{"base_weights":[1.00981565E-2,4.1735128E-1,-5.853358E-1,7.639017E-1,2.0569281E-1,-5.000132E-1,-6.355218E-1,6.6287804E-1,1.2676156E0,2.8821388E-1,-3.430892E-2,-4.3554786E-1,-6.3651554E-2,-6.376898E-2,-4.4878143E-1,6.266673E-1,1.0467495E0,1.2785989E0,8.849453E-2,1.4237018E-1,4.4060242E-1,7.3642015E-2,-2.3217398E-1,-1.935731E-1,-5.375246E-1,-6.283061E-2,-2.3034401E-1,7.04624E-1,4.4686487E-1,1.0933869E0,-6.67496E-2,1.302707E0,9.8817796E-1,-5.990218E-2,1.2426944E-1,7.302556E-2,4.6242833E-1,3.786271E-1,7.1376723E-1,1.515873E-1,-3.583811E-1,-2.654752E-1,5.126052E-1,-6.435207E-2,-1.2430367E-1,-5.764605E-1,-2.2154708E-1,1.6056204E-1,-4.1088712E-1,5.522414E-2,8.9165986E-2,5.258843E-2,-1.7112263E-2,1.7194908E-2,1.17484525E-1,1.11196004E-1,1.3346522E-1,-5.3786177E-2,1.0566634E-1,4.003629E-3,6.315946E-2,5.6686398E-2,-5.573637E-3,8.443302E-2,3.3144813E-2,-2.2390647E-2,7.637551E-2,1.9895932E-2,-4.3861914E-2,-5.0207477E-2,1.2122649E-2,-7.764667E-3,-3.713874E-2,-6.25211E-2,1.16954304E-1,-2.1939944E-2,2.725608E-2,-5.888776E-2,3.8919266E-2,-4.3715727E-2,1.1173835E-1,8.928792E-2,-6.2167417E-2],"categories":[],"categories_nodes":[],"categories_segments":[],"categories_sizes":[],"default_left":[0,0,0,0,0,0,0,0,0,0,0,0,0,0,0,0,0,0,0,0,0,0,0,0,0,0,0,0,0,0,0,0,0,0,0,0,0,0,0,0,0,0,0,0,0,0,0,0,0,0,0,0,0,0,0,0,0,0,0,0,0,0,0,0,0,0,0,0,0,0,0,0,0,0,0,0,0,0,0,0,0,0,0],"id":9,"left_children":[1,3,5,7,9,11,13,15,17,19,21,23,-1,-1,25,27,29,31,33,35,37,39,41,43,45,-1,47,49,51,53,-1,55,57,-1,-1,59,61,63,65,67,69,71,73,-1,75,77,79,-1,81,-1,-1,-1,-1,-1,-1,-1,-1,-1,-1,-1,-1,-1,-1,-1,-1,-1,-1,-1,-1,-1,-1,-1,-1,-1,-1,-1,-1,-1,-1,-1,-1,-1,-1],"loss_changes":[7.9186875E3,1.422168E3,5.6362305E1,3.7311133E2,2.3850375E2,4.2888184E1,2.9846191E0,8.433594E1,1.5640625E1,1.9902246E2,6.584932E1,8.233319E1,0E0,0E0,3.6790848E0,7.807959E1,4.2854492E1,6.9942627E0,1.0713785E1,1.0156963E2,7.378943E1,6.718245E1,2.7102383E1,3.0800049E1,2.8723206E1,0E0,1.6054804E1,1.1065918E2,8.3000854E1,3.815808E1,0E0,5.0889893E0,1.08233185E1,0E0,0E0,6.9304665E1,4.4197998E1,7.811334E1,3.813211E1,4.731988E1,2.111039E1,2.0664406E1,3.5759377E1,0E0,3.2592506E1,2.5341553E1,7.54452E1,0E0,1.2471626E1,0E0,0E0,0E0,0E0,0E0,0E0,0E0,0E0,0E0,0E0,0E0,0E0,0E0,0E0,0E0,0E0,0E0,0E0,0E0,0E0,0E0,0E0,0E0,0E0,0E0,0E0,0E0,0E0,0E0,0E0,0E0,0E0,0E0,0E0],"parents":[2147483647,0,0,1,1,2,2,3,3,4,4,5,5,6,6,7,7,8,8,9,9,10,10,11,11,14,14,15,15,16,16,17,17,18,18,19,19,20,20,21,21,22,22,23,23,24,24,26,26,27,27,28,28,29,29,31,31,32,32,35,35,36,36,37,37,38,38,39,39,40,40,41,41,42,42,44,44,45,45,46,46,48,48],"right_children":[2,4,6,8,10,12,14,16,18,20,22,24,-1,-1,26,28,30,32,34,36,38,40,42,44,46,-1,48,50,52,54,-1,56,58,-1,-1,60,62,64,66,68,70,72,74,-1,76,78,80,-1,82,-1,-1,-1,-1,-1,-1,-1,-1,-1,-1,-1,-1,-1,-1,-1,-1,-1,-1,-1,-1,-1,-1,-1,-1,-1,-1,-1,-1,-1,-1,-1,-1,-1,-1],"split_conditions":[0E0,1.872E0,6.978648E-2,-1.454364E0,-2.0502644E0,7.405322E0,2.1E1,2.6561293E-1,4.5770466E-1,-3.4933891E0,6.994911E1,7E0,-6.3651554E-2,-6.376898E-2,1.8801986E-1,3.4242883E-5,-1.595011E0,1E0,-2.2198959E-1,1.9499388E0,2E0,1.0670162E1,2.445891E0,-4.284318E0,8.080117E1,-6.283061E-2,1.9091305E-1,-3.513094E0,1E0,-3.7409217E0,-6.67496E-2,-1.2608131E0,-1.2116917E0,-5.990218E-2,1.2426944E-1,6.5243965E-1,1.0256318E2,4E0,4E0,3.5177967E-1,1E0,8.130847E-2,-1.1581408E0,-6.435207E-2,1E0,3.2130302E1,4.309501E0,1.6056204E-1,2.1047678E0,5.522414E-2,8.9165986E-2,5.258843E-2,-1.7112263E-2,1.7194908E-2,1.17484525E-1,1.11196004E-1,1.3346522E-1,-5.3786177E-2,1.0566634E-1,4.003629E-3,6.315946E-2,5.6686398E-2,-5.573637E-3,8.443302E-2,3.3144813E-2,-2.2390647E-2,7.637551E-2,1.9895932E-2,-4.3861914E-2,-5.0207477E-2,1.2122649E-2,-7.764667E-3,-3.713874E-2,-6.25211E-2,1.16954304E-1,-2.1939944E-2,2.725608E-2,-5.888776E-2,3.8919266E-2,-4.3715727E-2,1.1173835E-1,8.928792E-2,-6.2167417E-2],"split_indices":[4,8,2,4,4,4,3,11,2,4,8,3,0,0,11,5,4,16,4,1,7,5,1,5,8,0,11,4,16,5,0,4,4,0,0,11,8,3,3,11,17,1,4,0,16,5,4,0,2,0,0,0,0,0,0,0,0,0,0,0,0,0,0,0,0,0,0,0,0,0,0,0,0,0,0,0,0,0,0,0,0,0,0],"split_type":[0,0,0,0,0,0,0,0,0,0,0,0,0,0,0,0,0,0,0,0,0,0,0,0,0,0,0,0,0,0,0,0,0,0,0,0,0,0,0,0,0,0,0,0,0,0,0,0,0,0,0,0,0,0,0,0,0,0,0,0,0,0,0,0,0,0,0,0,0,0,0,0,0,0,0,0,0,0,0,0,0,0,0],"sum_hessian":[3.2653479E4,1.9391162E4,1.3262316E4,7.351462E3,1.20397E4,4.9165347E3,8.345781E3,6.1254673E3,1.2259948E3,8.959368E3,3.0803318E3,3.34278E3,1.5737548E3,8.247082E3,9.869875E1,5.6001006E3,5.2536676E2,1.2145126E3,1.1482203E1,4.579316E3,4.380052E3,1.9930752E3,1.0872567E3,9.922368E2,2.3505432E3,5.2893566E1,4.5805187E1,3.903982E3,1.6961187E3,5.1186166E2,1.3505091E1,1.1178859E3,9.662666E1,7.4430223E0,4.0391803E0,3.7651003E3,8.142156E2,3.57232E3,8.077319E2,1.6891929E3,3.038823E2,1.0414674E3,4.57892E1,1.3107701E2,8.611598E2,2.0916606E3,2.5888263E2,3.3447597E0,4.2460426E1,2.1537544E3,1.7502275E3,1.504106E3,1.9201265E2,4.192738E1,4.6993427E2,1.6594643E2,9.5193945E2,3.7930658E0,9.2833595E1,3.556314E3,2.087864E2,6.777206E2,1.3649496E2,3.2686108E2,3.245459E3,4.060383E1,7.6712805E2,1.5644564E3,1.24736435E2,2.3395073E2,6.9931564E1,3.7648047E2,6.64987E2,1.6722284E1,2.9066917E1,6.952619E2,1.6589792E2,2.0655933E3,2.606728E1,2.2362079E2,3.5261833E1,5.3930197E0,3.7067406E1],"tree_param":{"num_deleted":"0","num_feature":"18","num_nodes":"83","size_leaf_vector":"1"}},{"base_weights":[8.344454E-3,4.0495142E-1,-5.487596E-1,1.02931425E-1,6.4079046E-1,-6.104666E-1,-1.9107318E-1,2.22962E-1,-5.940839E-1,9.1920614E-1,5.571411E-1,-4.479121E-1,-6.243341E-1,8.629297E-2,-6.452429E-1,3.8220334E-1,9.375459E-2,-6.0497487E-1,1.5285935E-1,6.845216E-1,1.0284982E0,4.3316913E-1,7.10539E-1,-6.299232E-1,-8.584794E-2,-6.3880116E-1,-5.5351186E-1,-4.1413322E-1,8.786767E-1,-6.633749E-2,-4.6608225E-1,2.9187328E-1,7.703983E-1,-3.4846014E-1,1.144259E-1,-2.7761856E-1,-6.607248E-2,7.553161E-1,-2.0144874E-1,1.0817235E0,1.610075E-1,5.529262E-1,3.1427523E-1,5.53541E-1,9.6060336E-1,-6.521315E-2,-4.0325296E-1,3.0610558E-1,-6.536969E-2,-6.4014494E-2,-5.4146355E-1,-6.1445385E-1,-1.879133E-1,-6.5938964E-2,-2.610409E-1,-2.3998039E-2,1.0711976E0,1.14798464E-1,-6.507742E-2,2.1794744E-2,9.0441726E-2,1.2800899E-1,6.928182E-2,-5.709759E-2,1.0461991E-1,8.8842876E-2,9.7554615E-3,-6.4651854E-2,-1.7347839E-2,7.012679E-2,1.6190125E-1,-6.6261545E-2,1.5794694E-1,8.55137E-2,1.1747432E-1,-3.833769E-3,1.5320615E-1,6.1971236E-2,1.105241E-2,2.0884996E-2,5.3530313E-2,6.5271825E-2,2.5581613E-2,6.750891E-2,1.0954006E-1,-6.3856475E-2,6.3545436E-2,-1.0033507E-2,1.0916108E-1,5.154395E-3,-6.4809166E-2,-6.2257845E-2,-1.5610165E-2,-4.8194375E-2,2.4682894E-2,-7.4931816E-3,-4.7579024E-2,1.1370766E-1,-6.58296E-2,1.1624469E-1,-1.7106075E-2],"categories":[],"categories_nodes":[],"categories_segments":[],"categories_sizes":[],"default_left":[0,0,0,0,0,0,0,0,0,0,0,0,0,0,0,0,0,0,0,0,0,0,0,0,0,0,0,0,0,0,0,0,0,0,0,0,0,0,0,0,0,0,0,0,0,0,0,0,0,0,0,0,0,0,0,0,0,0,0,0,0,0,0,0,0,0,0,0,0,0,0,0,0,0,0,0,0,0,0,0,0,0,0,0,0,0,0,0,0,0,0,0,0,0,0,0,0,0,0,0,0],"id":10,"left_children":[1,3,5,7,9,11,13,15,17,19,21,23,25,27,29,31,33,35,-1,37,39,41,43,45,47,49,51,53,55,-1,57,59,61,63,65,67,-1,69,71,73,75,77,79,81,83,-1,85,87,-1,-1,89,91,93,-1,95,97,99,-1,-1,-1,-1,-1,-1,-1,-1,-1,-1,-1,-1,-1,-1,-1,-1,-1,-1,-1,-1,-1,-1,-1,-1,-1,-1,-1,-1,-1,-1,-1,-1,-1,-1,-1,-1,-1,-1,-1,-1,-1,-1,-1,-1],"loss_changes":[7.2243984E3,1.3602981E3,2.9991553E2,7.0087317E2,2.4910791E2,2.5752441E1,2.5234268E2,1.4695706E2,2.9283203E1,6.2629883E1,1.5646167E2,6.0210922E1,1.0470703E1,4.9363574E2,2.0448914E0,1.1189752E2,3.609642E1,2.208197E1,0E0,4.975522E1,7.759302E1,6.474249E1,1.4400024E2,2.6968842E0,6.8705025E1,6.9433594E-1,4.0364624E1,2.8383377E1,8.3872314E1,0E0,2.2656977E1,1.1734395E2,2.277295E1,5.525952E1,4.9066994E1,6.7314053E0,0E0,3.2794952E1,4.9523975E1,3.2286987E1,2.7212654E1,6.700781E1,5.3260483E1,6.666742E1,5.3725098E1,0E0,1.4426153E1,5.850019E1,0E0,0E0,8.197826E0,5.6329956E0,3.3604164E1,0E0,1.8760033E1,6.373774E1,4.5331726E1,0E0,0E0,0E0,0E0,0E0,0E0,0E0,0E0,0E0,0E0,0E0,0E0,0E0,0E0,0E0,0E0,0E0,0E0,0E0,0E0,0E0,0E0,0E0,0E0,0E0,0E0,0E0,0E0,0E0,0E0,0E0,0E0,0E0,0E0,0E0,0E0,0E0,0E0,0E0,0E0,0E0,0E0,0E0,0E0],"parents":[2147483647,0,0,1,1,2,2,3,3,4,4,5,5,6,6,7,7,8,8,9,9,10,10,11,11,12,12,13,13,14,14,15,15,16,16,17,17,19,19,20,20,21,21,22,22,23,23,24,24,25,25,26,26,27,27,28,28,30,30,31,31,32,32,33,33,34,34,35,35,37,37,38,38,39,39,40,40,41,41,42,42,43,43,44,44,46,46,47,47,50,50,51,51,52,52,54,54,55,55,56,56],"right_children":[2,4,6,8,10,12,14,16,18,20,22,24,26,28,30,32,34,36,-1,38,40,42,44,46,48,50,52,54,56,-1,58,60,62,64,66,68,-1,70,72,74,76,78,80,82,84,-1,86,88,-1,-1,90,92,94,-1,96,98,100,-1,-1,-1,-1,-1,-1,-1,-1,-1,-1,-1,-1,-1,-1,-1,-1,-1,-1,-1,-1,-1,-1,-1,-1,-1,-1,-1,-1,-1,-1,-1,-1,-1,-1,-1,-1,-1,-1,-1,-1,-1,-1,-1,-1],"split_conditions":[0E0,5E0,2E0,-1.454364E0,-3.9388077E0,7.7873E-3,5.579607E0,-3.700046E0,5.6E1,2.4945526E-1,1.570438E1,1.3059664E1,1.0916531E0,3.9520466E-1,3.5974094E1,-3.8828104E0,-8.926196E0,-1.2608131E0,1.5285935E-1,1.4092739E-1,2.4032354E0,-2.6710715E0,-1.9778367E0,2E0,3.1835718E0,1.7865377E1,1.7273129E1,-9.777989E-5,-1.0536627E0,-6.633749E-2,9.617287E0,3.481657E-1,-3.8619206E0,1.2068875E0,-7.137644E0,-5.02157E-1,-6.607248E-2,5.853351E-2,-4.0357513E0,1.2208377E1,3.161271E1,1E0,-1.2608131E0,2.9455132E1,2E0,-6.521315E-2,7.2951055E0,2.1512756E0,-6.536969E-2,-6.4014494E-2,1.8676443E1,2.6125956E1,1E0,-6.5938964E-2,4.531872E0,-3.3296036E1,4.309501E0,1.14798464E-1,-6.507742E-2,2.1794744E-2,9.0441726E-2,1.2800899E-1,6.928182E-2,-5.709759E-2,1.0461991E-1,8.8842876E-2,9.7554615E-3,-6.4651854E-2,-1.7347839E-2,7.012679E-2,1.6190125E-1,-6.6261545E-2,1.5794694E-1,8.55137E-2,1.1747432E-1,-3.833769E-3,1.5320615E-1,6.1971236E-2,1.105241E-2,2.0884996E-2,5.3530313E-2,6.5271825E-2,2.5581613E-2,6.750891E-2,1.0954006E-1,-6.3856475E-2,6.3545436E-2,-1.0033507E-2,1.0916108E-1,5.154395E-3,-6.4809166E-2,-6.2257845E-2,-1.5610165E-2,-4.8194375E-2,2.4682894E-2,-7.4931816E-3,-4.7579024E-2,1.1370766E-1,-6.58296E-2,1.1624469E-1,-1.7106075E-2],"split_indices":[4,0,14,4,4,12,4,4,7,1,0,0,1,4,0,4,5,4,0,1,1,4,4,7,4,5,0,5,5,0,4,2,4,11,5,5,0,1,4,0,0,10,4,0,14,0,0,5,0,0,5,5,7,0,5,5,4,0,0,0,0,0,0,0,0,0,0,0,0,0,0,0,0,0,0,0,0,0,0,0,0,0,0,0,0,0,0,0,0,0,0,0,0,0,0,0,0,0,0,0,0],"split_type":[0,0,0,0,0,0,0,0,0,0,0,0,0,0,0,0,0,0,0,0,0,0,0,0,0,0,0,0,0,0,0,0,0,0,0,0,0,0,0,0,0,0,0,0,0,0,0,0,0,0,0,0,0,0,0,0,0,0,0,0,0,0,0,0,0,0,0,0,0,0,0,0,0,0,0,0,0,0,0,0,0,0,0,0,0,0,0,0,0,0,0,0,0,0,0,0,0,0,0,0,0],"sum_hessian":[3.2694842E4,1.9098742E4,1.35961E4,8.375183E3,1.072356E4,1.159481E4,2.0012899E3,7.145504E3,1.2296787E3,2.474924E3,8.248636E3,9.1458136E2,1.0680229E4,1.2428552E3,7.584347E2,3.1995254E3,3.9459783E3,1.2241599E3,5.518762E0,7.889589E2,1.6859651E3,4.564338E3,3.684297E3,6.079476E2,3.066338E2,8.860776E3,1.8194523E3,7.6198096E2,4.808743E2,6.857707E2,7.2664024E1,2.5971887E3,6.0233685E2,1.7529315E2,3.770685E3,1.7927193E2,1.0448881E3,7.308221E2,5.813682E1,1.5881606E3,9.780447E1,2.271677E3,2.2926611E3,2.2655374E3,1.4187598E3,5.515871E2,5.63605E1,1.8158257E2,1.250512E2,8.7336E3,1.2717665E2,1.5586798E3,2.6077237E2,2.913205E2,4.7066043E2,8.459388E1,3.962804E2,6.869829E0,6.57942E1,2.3188533E3,2.7833542E2,7.7352425E1,5.2498444E2,1.5174481E2,2.354835E1,7.920952E1,3.6914756E3,3.8108883E1,1.4116304E2,6.895964E2,4.1225708E1,4.672224E1,1.1414583E1,4.6550555E2,1.1226552E3,8.617422E1,1.1630249E1,1.9731744E3,2.9850253E2,1.5538889E3,7.387723E2,1.6982822E3,5.672552E2,4.5717224E2,9.615875E2,4.634326E1,1.0017236E1,1.20155815E2,6.1426758E1,1.9318176E1,1.07858475E2,1.5309662E3,2.7713715E1,1.5563365E2,1.0513871E2,2.5311606E2,2.1754437E2,2.955094E1,5.5042942E1,3.6929858E2,2.698183E1],"tree_param":{"num_deleted":"0","num_feature":"18","num_nodes":"101","size_leaf_vector":"1"}},{"base_weights":[-9.154419E-3,-5.493148E-1,1.2038373E0,-5.9820443E-1,-5.1008254E-1,-5.8950806E-1,1.411906E0,1.3500033E-1,-6.0329264E-1,-6.475927E-2,-5.4534394E-1,-6.393826E-2,-0E0,1.4129965E-1,-5.158911E-2,8.8938534E-1,-6.2021133E-2,-6.228938E-1,-4.6680045E-1,1.9381823E-1,-6.3636646E-2,-5.494273E-1,4.6782932E-1,1.0882071E0,-6.261107E-2,-5.7665944E-2,1.5437086E-1,-6.340707E-1,-5.6633914E-1,-7.5595684E-2,-6.412154E-2,-2.0755655E-1,7.1731865E-1,-6.27652E-1,-5.096376E-1,-6.0821604E-2,1.3555853E-1,1.4467771E-1,-5.5655986E-2,-6.415806E-2,-5.6706738E-2,-9.164243E-3,-6.4174E-2,-4.6638396E-2,1.6440217E-1,1.6100456E-1,-4.840619E-2,1.1088083E-1,-6.473687E-2,-6.411129E-2,2.7153438E-2,-2.7176002E-2,-5.458934E-2],"categories":[],"categories_nodes":[],"categories_segments":[],"categories_sizes":[],"default_left":[0,0,0,0,0,0,0,0,0,0,0,0,0,0,0,0,0,0,0,0,0,0,0,0,0,0,0,0,0,0,0,0,0,0,0,0,0,0,0,0,0,0,0,0,0,0,0,0,0,0,0,0,0],"id":11,"left_children":[1,3,5,7,9,11,13,15,17,19,21,-1,23,-1,-1,25,-1,27,29,31,-1,33,35,37,-1,-1,-1,39,41,43,-1,45,47,49,51,-1,-1,-1,-1,-1,-1,-1,-1,-1,-1,-1,-1,-1,-1,-1,-1,-1,-1],"loss_changes":[2.1505326E4,4.31416E1,3.7743604E3,3.78208E1,1.9786816E2,3.0976105E1,1.9871094E1,4.0636982E1,2.6445557E1,1.3708546E2,4.8593506E1,0E0,5.7228813E1,0E0,0E0,3.518726E1,0E0,5.0651855E0,8.61691E1,1.343532E2,0E0,3.578174E1,4.6114635E1,1.9000748E1,0E0,0E0,0E0,3.1950684E0,5.2057556E1,2.6358997E2,0E0,1.8262512E2,1.4897333E2,4.7631714E1,6.633789E1,0E0,0E0,0E0,0E0,0E0,0E0,0E0,0E0,0E0,0E0,0E0,0E0,0E0,0E0,0E0,0E0,0E0,0E0],"parents":[2147483647,0,0,1,1,2,2,3,3,4,4,5,5,6,6,7,7,8,8,9,9,10,10,12,12,15,15,17,17,18,18,19,19,21,21,22,22,23,23,27,27,28,28,29,29,31,31,32,32,33,33,34,34],"right_children":[2,4,6,8,10,12,14,16,18,20,22,-1,24,-1,-1,26,-1,28,30,32,-1,34,36,38,-1,-1,-1,40,42,44,-1,46,48,50,52,-1,-1,-1,-1,-1,-1,-1,-1,-1,-1,-1,-1,-1,-1,-1,-1,-1,-1],"split_conditions":[3.0654724E0,7.587788E0,4.03791E-3,-2.4858965E1,8.570562E0,2.8E1,4E0,3E0,1E0,-1.932937E0,3E0,-6.393826E-2,2.9E1,1.4129965E-1,-5.158911E-2,3.3771732E-1,-6.2021133E-2,2.3119233E0,-9.205699E-3,-3.1011677E0,-6.3636646E-2,4E-1,4.03791E-3,3.5661902E0,-6.261107E-2,-5.7665944E-2,1.5437086E-1,1.5166086E0,2.9526865E0,-7.312575E-2,-6.412154E-2,4.5250546E-2,1.7E1,2.0018096E0,1.3639325E-1,-6.0821604E-2,1.3555853E-1,1.4467771E-1,-5.5655986E-2,-6.415806E-2,-5.6706738E-2,-9.164243E-3,-6.4174E-2,-4.6638396E-2,1.6440217E-1,1.6100456E-1,-4.840619E-2,1.1088083E-1,-6.473687E-2,-6.411129E-2,2.7153438E-2,-2.7176002E-2,-5.458934E-2],"split_indices":[2,0,1,5,0,7,3,3,7,4,2,0,7,0,0,6,0,5,5,4,0,6,1,2,0,0,0,1,5,5,0,12,3,2,12,0,0,0,0,0,0,0,0,0,0,0,0,0,0,0,0,0,0],"split_type":[0,0,0,0,0,0,0,0,0,0,0,0,0,0,0,0,0,0,0,0,0,0,0,0,0,0,0,0,0,0,0,0,0,0,0,0,0,0,0,0,0,0,0,0,0,0,0,0,0,0,0,0,0],"sum_hessian":[3.2820125E4,2.2708412E4,1.011171E4,1.0102399E4,1.2606014E4,1.0509812E3,9.0607295E3,6.93125E1,1.0033087E4,9.2534283E2,1.168067E4,9.690357E2,8.194556E1,9.055925E3,4.803791E0,3.4652588E1,3.465991E1,8.769441E3,1.263646E3,6.3746106E2,2.878818E2,1.1634338E4,4.6332813E1,2.9701267E1,5.2244293E1,1.068289E1,2.3969698E1,7.3123223E3,1.457119E3,3.902776E2,8.7336835E2,3.6105093E2,2.764101E2,3.9168022E3,7.717535E3,2.1036633E1,2.5296179E1,2.4533892E1,5.1673756E0,6.566291E3,7.46031E2,2.0020998E2,1.256909E3,3.1865027E2,7.1627304E1,4.6988503E1,3.1406244E2,2.1499498E2,6.141511E1,3.8594243E3,5.7377907E1,1.0221797E3,6.6953555E3],"tree_param":{"num_deleted":"0","num_feature":"18","num_nodes":"53","size_leaf_vector":"1"}},{"base_weights":[2.495341E-3,-1.4376065E-1,1.2385681E0,-5.0131196E-1,6.132156E-2,8.350475E-1,1.2757145E0,-5.336123E-1,2.0863068E-1,-3.3311948E-1,1.1925691E0,1.5112887E-1,1.1135123E0,1.0926208E0,1.2851654E-1,-4.0729004E-1,-6.1391497E-1,1.2269186E0,-1.0406077E-1,-3.7663627E-1,-2.0222436E-1,1.2817172E0,1.0549067E0,1.2397405E-1,-1.7656474E-1,-5.2505727E-3,1.1529285E0,1.2860265E-1,6.369749E-1,-2.8026915E-1,-4.9164274E-1,-5.4497503E-2,-6.2447663E-2,1.3096018E-1,6.945245E-1,1.1823139E0,-2.9487464E-1,-3.919115E-1,-1.832068E-1,-2.4597858E-1,1.3753326E-2,1.2875517E-1,7.7062476E-1,1.0967791E0,-5.802666E-2,1.2487383E-1,-3.4356403E-1,1.3405243E-1,8.164028E-1,1.2102506E-1,1.0255972E0,-3.212039E-2,1.3624199E-1,-5.179819E-2,-2.999479E-2,-1.1938234E-2,1.14406265E-1,-3.9833717E-2,1.2114354E-1,-5.3582072E-2,1.3724492E-1,-3.6817238E-2,1.2829126E-1,-3.8111355E-2,-5.549416E-2,-2.5381742E-2,-7.1535865E-3,-2.5520956E-2,8.868765E-2,3.6389694E-2,-7.1734744E-3,1.3555327E-1,-3.6807389E-3,1.2154668E-1,9.276515E-2,-5.041347E-2,1.3668041E-1,-3.9660763E-2,2.7207301E-3,-4.4863723E-2,9.949224E-2,1.2230835E-1,-1.1977042E-2,-3.4046765E-2,1.280192E-1],"categories":[],"categories_nodes":[],"categories_segments":[],"categories_sizes":[],"default_left":[0,0,0,0,0,0,0,0,0,0,0,0,0,0,0,0,0,0,0,0,0,0,0,0,0,0,0,0,0,0,0,0,0,0,0,0,0,0,0,0,0,0,0,0,0,0,0,0,0,0,0,0,0,0,0,0,0,0,0,0,0,0,0,0,0,0,0,0,0,0,0,0,0,0,0,0,0,0,0,0,0,0,0,0,0],"id":12,"left_children":[1,3,5,7,9,11,13,15,17,19,21,23,25,27,-1,29,31,33,35,37,39,41,43,-1,45,-1,47,-1,49,51,53,55,-1,-1,57,59,61,63,65,67,69,-1,71,73,75,-1,77,-1,79,81,83,-1,-1,-1,-1,-1,-1,-1,-1,-1,-1,-1,-1,-1,-1,-1,-1,-1,-1,-1,-1,-1,-1,-1,-1,-1,-1,-1,-1,-1,-1,-1,-1,-1,-1],"loss_changes":[5.842972E3,2.1192466E3,4.9981934E1,2.4171484E2,8.195866E3,5.5198334E1,3.7729492E0,1.0186377E2,1.4639534E2,7.7441284E1,5.6690918E1,3.0851522E1,9.675568E0,1.3157944E1,0E0,4.1781494E1,3.6281494E1,3.6438293E0,8.666725E1,3.0065308E1,3.2163406E1,7.3813477E0,8.743091E1,0E0,1.6185707E1,0E0,1.1327087E1,0E0,9.796223E0,1.0570224E2,1.1646362E1,9.006751E0,0E0,0E0,1.0059348E1,1.5716946E1,3.5933502E1,1.6365479E1,5.865612E0,2.973964E1,1.7220406E1,0E0,1.6785646E1,3.4886475E1,4.4309006E1,0E0,1.236454E0,0E0,1.730212E1,6.2928786E0,1.0372992E1,0E0,0E0,0E0,0E0,0E0,0E0,0E0,0E0,0E0,0E0,0E0,0E0,0E0,0E0,0E0,0E0,0E0,0E0,0E0,0E0,0E0,0E0,0E0,0E0,0E0,0E0,0E0,0E0,0E0,0E0,0E0,0E0,0E0,0E0],"parents":[2147483647,0,0,1,1,2,2,3,3,4,4,5,5,6,6,7,7,8,8,9,9,10,10,11,11,12,12,13,13,15,15,16,16,17,17,18,18,19,19,20,20,21,21,22,22,24,24,26,26,28,28,29,29,30,30,31,31,34,34,35,35,36,36,37,37,38,38,39,39,40,40,42,42,43,43,44,44,46,46,48,48,49,49,50,50],"right_children":[2,4,6,8,10,12,14,16,18,20,22,24,26,28,-1,30,32,34,36,38,40,42,44,-1,46,-1,48,-1,50,52,54,56,-1,-1,58,60,62,64,66,68,70,-1,72,74,76,-1,78,-1,80,82,84,-1,-1,-1,-1,-1,-1,-1,-1,-1,-1,-1,-1,-1,-1,-1,-1,-1,-1,-1,-1,-1,-1,-1,-1,-1,-1,-1,-1,-1,-1,-1,-1,-1,-1],"split_conditions":[3.1835718E0,5E-1,5.579607E0,7.9920626E-1,0E0,1.2522072E-5,7.405322E0,3E0,1.2208377E1,-2.0273573E0,1.4624079E1,1.2983949E1,-4.099389E1,2.0435482E1,1.2851654E-1,1.2208377E1,4.03791E-3,1.0436728E1,-2.5490704E0,1E0,1.5453163E-1,2.6125956E1,4.7890744E-1,1.2397405E-1,-6.5015917E0,-5.2505727E-3,1.6743169E0,1.2860265E-1,1.2522072E-5,-5.2202594E-2,9.097701E-6,-2.9688102E-1,-6.2447663E-2,1.3096018E-1,1.0540335E1,1.228104E1,6.747999E-3,2.9455132E1,4.2490087E0,2.5446181E0,5.6750336E0,1.2875517E-1,1.35266485E1,8.518996E-1,5.3520594E-2,1.2487383E-1,9.034231E0,1.3405243E-1,1.67974E0,-4.284318E0,2.0569126E1,-3.212039E-2,1.3624199E-1,-5.179819E-2,-2.999479E-2,-1.1938234E-2,1.14406265E-1,-3.9833717E-2,1.2114354E-1,-5.3582072E-2,1.3724492E-1,-3.6817238E-2,1.2829126E-1,-3.8111355E-2,-5.549416E-2,-2.5381742E-2,-7.1535865E-3,-2.5520956E-2,8.868765E-2,3.6389694E-2,-7.1734744E-3,1.3555327E-1,-3.6807389E-3,1.2154668E-1,9.276515E-2,-5.041347E-2,1.3668041E-1,-3.9660763E-2,2.7207301E-3,-4.4863723E-2,9.949224E-2,1.2230835E-1,-1.1977042E-2,-3.4046765E-2,1.280192E-1],"split_indices":[4,6,4,4,4,12,4,2,0,4,0,0,5,0,0,0,1,0,5,10,2,5,4,0,5,0,1,0,12,4,2,4,0,0,0,0,2,0,2,12,0,0,0,1,12,0,5,0,12,5,0,0,0,0,0,0,0,0,0,0,0,0,0,0,0,0,0,0,0,0,0,0,0,0,0,0,0,0,0,0,0,0,0,0,0],"split_type":[0,0,0,0,0,0,0,0,0,0,0,0,0,0,0,0,0,0,0,0,0,0,0,0,0,0,0,0,0,0,0,0,0,0,0,0,0,0,0,0,0,0,0,0,0,0,0,0,0,0,0,0,0,0,0,0,0,0,0,0,0,0,0,0,0,0,0,0,0,0,0,0,0,0,0,0,0,0,0,0,0,0,0,0,0],"sum_hessian":[3.2317764E4,2.889913E4,3.4186328E3,1.0533502E4,1.8365629E4,2.9038287E2,3.12825E3,1.0075485E4,4.580164E2,1.3617963E4,4.7476655E3,8.457233E1,2.0581055E2,1.5978848E2,2.9684614E3,3.9185774E3,6.156908E3,1.0699158E2,3.510248E2,1.0218221E4,3.3997422E3,2.8761064E3,1.8715594E3,1.8994328E1,6.5578E1,6.6359234E0,1.9917462E2,1.1074097E2,4.9047516E1,1.5659817E3,2.3525957E3,1.1437644E2,6.0425317E3,9.118281E1,1.5808769E1,4.460426E1,3.0642056E2,9.468911E3,7.4930927E2,2.827294E3,5.7244836E2,2.841949E3,3.4157345E1,1.8037987E3,6.776065E1,6.1356072E0,5.9442394E1,1.2577882E2,7.3395805E1,2.174576E1,2.7301756E1,1.5287516E3,3.7230194E1,2.06644E3,2.8615582E2,1.0943589E2,4.940554E0,5.0878606E0,1.0720908E1,4.210702E0,4.039356E1,2.936106E2,1.2809949E1,8.884421E3,5.8449097E2,4.577201E2,2.9158917E2,2.805298E3,2.1995733E1,1.1192734E2,4.6052103E2,1.948636E1,1.4670986E1,1.0559752E3,7.478235E2,5.2149303E1,1.5611349E1,5.2177727E1,7.264667E0,8.8201885E0,6.4575615E1,3.2423427E0,1.8503416E1,4.1742344E0,2.3127522E1],"tree_param":{"num_deleted":"0","num_feature":"18","num_nodes":"85","size_leaf_vector":"1"}},{"base_weights":[-4.37514E-3,5.898877E-1,-2.1908543E-1,6.093171E-1,6.0364425E-2,-6.9067426E-2,-5.5741847E-1,5.565099E-1,7.062216E-1,9.1897285E-1,-6.6964544E-2,-1.6427551E-1,-1.24910865E-2,-6.2050086E-1,-9.4635844E-2,5.74646E-1,3.1481335E-1,1.6783051E-1,7.4009186E-1,-5.298389E-2,1.1856632E0,-2.5754055E-1,2.7937382E-1,-1.8309705E-1,1.9670247E-1,-4.8420407E-2,1.13598E-1,-6.218552E-1,4.9278167E-1,-1.4262241E-1,2.389782E-1,5.880732E-1,2.2510293E-1,1.2658073E-1,1.0487096E0,3.6596736E-1,-4.6362162E-1,6.408161E-1,8.809073E-1,1.4330086E-1,8.7132E-1,-3.0158E-1,1.3585043E-1,4.2603308E-1,-6.2153548E-2,-2.1823604E-1,-1.7610224E-2,1.3145196E-1,1.0642202E0,-8.918855E-2,1.4105658E-1,1.8973859E-1,-2.4287488E-1,-6.2320155E-1,-6.813591E-2,-4.6553273E-2,1.1948353E-1,1.2533215E-1,-2.3989837E-1,7.2261393E-1,-9.7888686E-2,5.5303734E-2,8.295564E-2,-8.132437E-3,6.0419705E-2,2.3574145E-3,9.947214E-2,4.0671166E-2,1.4834486E-1,-7.7533177E-3,8.592749E-2,-6.710243E-2,1.03284135E-1,6.552464E-2,-3.1859532E-2,9.437613E-2,1.6596815E-2,1.17195606E-1,4.186662E-2,-5.4911863E-2,-9.988595E-3,-5.717091E-2,5.675553E-2,-2.5968263E-2,-1.0233187E-2,4.6410084E-2,-1.5034675E-2,-1.2938308E-2,3.19209E-2,-4.7909066E-2,1.4045417E-1,3.6817007E-2,-1.2074421E-2,-3.9515693E-2,2.3099108E-2,2.8290574E-2,-1.40139E-2,-4.664169E-2,-5.469239E-3,-2.1652313E-2,-6.2454607E-2,1.24315046E-1,-5.790611E-2,1.0438114E-1,-4.275569E-3,-2.9349169E-2,1.5661838E-2,-5.9146434E-2,9.7642325E-2,-4.427993E-2,6.730386E-2],"categories":[],"categories_nodes":[],"categories_segments":[],"categories_sizes":[],"default_left":[0,0,0,0,0,0,0,0,0,0,0,0,0,0,0,0,0,0,0,0,0,0,0,0,0,0,0,0,0,0,0,0,0,0,0,0,0,0,0,0,0,0,0,0,0,0,0,0,0,0,0,0,0,0,0,0,0,0,0,0,0,0,0,0,0,0,0,0,0,0,0,0,0,0,0,0,0,0,0,0,0,0,0,0,0,0,0,0,0,0,0,0,0,0,0,0,0,0,0,0,0,0,0,0,0,0,0,0,0,0,0],"id":13,"left_children":[1,3,5,7,9,11,13,15,17,19,21,23,25,27,29,31,33,35,37,-1,39,41,43,45,47,49,51,53,55,57,59,61,63,65,67,69,71,73,75,-1,77,79,-1,81,-1,83,85,87,89,91,93,95,97,99,101,-1,-1,103,105,107,109,-1,-1,-1,-1,-1,-1,-1,-1,-1,-1,-1,-1,-1,-1,-1,-1,-1,-1,-1,-1,-1,-1,-1,-1,-1,-1,-1,-1,-1,-1,-1,-1,-1,-1,-1,-1,-1,-1,-1,-1,-1,-1,-1,-1,-1,-1,-1,-1,-1,-1],"loss_changes":[4.2059136E3,8.9906494E1,1.2289415E3,4.2664307E1,3.414077E1,9.035252E1,2.1701758E2,2.3697144E1,5.3984497E1,1.6275146E1,1.7997488E1,4.251796E1,4.768284E1,1.0188232E1,1.43309765E1,2.3649048E1,5.282853E1,2.2352978E1,3.8367554E1,0E0,1.1974831E0,1.282374E1,1.3022268E1,3.4536118E1,1.7293566E1,6.329306E1,6.3385864E1,4.7626953E0,6.294918E0,2.042911E1,1.8460108E1,4.0820923E1,2.2170357E1,2.7331863E1,2.102964E1,2.9832798E1,1.3905436E1,2.3000854E1,5.1542786E1,0E0,1.7845945E0,8.473978E0,0E0,1.2164368E1,0E0,2.3486557E1,6.670475E1,1.4245371E1,1.2028242E1,9.733818E1,7.002817E1,5.9181664E1,1.7210352E1,3.3466797E0,1.2151669E1,0E0,0E0,3.2365875E1,1.22673E1,1.6099955E1,1.8107512E1,0E0,0E0,0E0,0E0,0E0,0E0,0E0,0E0,0E0,0E0,0E0,0E0,0E0,0E0,0E0,0E0,0E0,0E0,0E0,0E0,0E0,0E0,0E0,0E0,0E0,0E0,0E0,0E0,0E0,0E0,0E0,0E0,0E0,0E0,0E0,0E0,0E0,0E0,0E0,0E0,0E0,0E0,0E0,0E0,0E0,0E0,0E0,0E0,0E0,0E0],"parents":[2147483647,0,0,1,1,2,2,3,3,4,4,5,5,6,6,7,7,8,8,9,9,10,10,11,11,12,12,13,13,14,14,15,15,16,16,17,17,18,18,20,20,21,21,22,22,23,23,24,24,25,25,26,26,27,27,28,28,29,29,30,30,31,31,32,32,33,33,34,34,35,35,36,36,37,37,38,38,40,40,41,41,43,43,45,45,46,46,47,47,48,48,49,49,50,50,51,51,52,52,53,53,54,54,57,57,58,58,59,59,60,60],"right_children":[2,4,6,8,10,12,14,16,18,20,22,24,26,28,30,32,34,36,38,-1,40,42,44,46,48,50,52,54,56,58,60,62,64,66,68,70,72,74,76,-1,78,80,-1,82,-1,84,86,88,90,92,94,96,98,100,102,-1,-1,104,106,108,110,-1,-1,-1,-1,-1,-1,-1,-1,-1,-1,-1,-1,-1,-1,-1,-1,-1,-1,-1,-1,-1,-1,-1,-1,-1,-1,-1,-1,-1,-1,-1,-1,-1,-1,-1,-1,-1,-1,-1,-1,-1,-1,-1,-1,-1,-1,-1,-1,-1,-1],"split_conditions":[1.6480341E0,1.0597649E0,3.0654724E0,1E0,-7.471284E0,6E-1,9E0,2E1,2.1820043E-1,1E1,1.0446682E0,2.4084896E1,1.9499388E0,2.2035961E1,1.4609926E1,1.0446682E0,1.8606171E-1,1.4056952E-1,9.097701E-6,-5.298389E-2,1.3E1,3.7E1,1E0,1.5E1,2.3191466E0,1.3E1,2.5004544E0,1.9896673E1,9.2941684E-1,7.119486E0,1.7221668E1,7.7873E-3,4.91003E-1,4E1,1.8E1,0E0,1.08017235E1,3.2E1,2E1,1.4330086E-1,-1.7000328E1,-2.2961411E-1,1.3585043E-1,2.1820043E-1,-6.2153548E-2,2.292236E1,7.210336E0,7.77612E-2,2.0090902E1,1.2522072E-5,9.083477E0,1.8596922E1,2.5446181E0,6.8698587E0,2E0,-4.6553273E-2,1.1948353E-1,4.155374E0,1.9599857E1,3.3699696E0,2.6125956E1,5.5303734E-2,8.295564E-2,-8.132437E-3,6.0419705E-2,2.3574145E-3,9.947214E-2,4.0671166E-2,1.4834486E-1,-7.7533177E-3,8.592749E-2,-6.710243E-2,1.03284135E-1,6.552464E-2,-3.1859532E-2,9.437613E-2,1.6596815E-2,1.17195606E-1,4.186662E-2,-5.4911863E-2,-9.988595E-3,-5.717091E-2,5.675553E-2,-2.5968263E-2,-1.0233187E-2,4.6410084E-2,-1.5034675E-2,-1.2938308E-2,3.19209E-2,-4.7909066E-2,1.4045417E-1,3.6817007E-2,-1.2074421E-2,-3.9515693E-2,2.3099108E-2,2.8290574E-2,-1.40139E-2,-4.664169E-2,-5.469239E-3,-2.1652313E-2,-6.2454607E-2,1.24315046E-1,-5.790611E-2,1.0438114E-1,-4.275569E-3,-2.9349169E-2,1.5661838E-2,-5.9146434E-2,9.7642325E-2,-4.427993E-2,6.730386E-2],"split_indices":[0,1,2,17,15,6,3,3,6,3,0,15,1,15,15,0,15,15,2,0,3,7,7,3,1,7,1,0,6,0,15,2,15,7,7,15,15,7,3,0,15,15,0,6,0,0,0,6,0,9,0,0,9,0,14,0,0,2,0,9,15,0,0,0,0,0,0,0,0,0,0,0,0,0,0,0,0,0,0,0,0,0,0,0,0,0,0,0,0,0,0,0,0,0,0,0,0,0,0,0,0,0,0,0,0,0,0,0,0,0,0],"split_type":[0,0,0,0,0,0,0,0,0,0,0,0,0,0,0,0,0,0,0,0,0,0,0,0,0,0,0,0,0,0,0,0,0,0,0,0,0,0,0,0,0,0,0,0,0,0,0,0,0,0,0,0,0,0,0,0,0,0,0,0,0,0,0,0,0,0,0,0,0,0,0,0,0,0,0,0,0,0,0,0,0,0,0,0,0,0,0,0,0,0,0,0,0,0,0,0,0,0,0,0,0,0,0,0,0,0,0,0,0,0,0],"sum_hessian":[3.2961445E4,8.74774E3,2.4213707E4,8.437798E3,3.0994263E2,1.6776467E4,7.4372407E3,5.466597E3,2.9712004E3,3.9326057E1,2.7061658E2,6.251915E3,1.0524551E4,6.544585E3,8.9265576E2,5.0833667E3,3.8323026E2,1.7638289E2,2.7948174E3,5.901906E0,3.3424152E1,1.7491374E2,9.5702835E1,5.9428237E3,3.090915E2,8.1917153E3,2.3328357E3,6.5371636E3,7.4213047E0,7.811662E2,1.1148957E2,4.894387E3,1.8897955E2,3.0604367E2,7.718656E1,1.3469662E2,4.1686268E1,1.6428552E3,1.1519623E3,1.653584E1,1.6888315E1,1.711256E2,3.7881453E0,8.285324E1,1.2849592E1,4.9011953E3,1.0416287E3,2.886476E2,2.0443882E1,6.7421265E3,1.4495887E3,1.9228698E3,4.0996585E2,6.521001E3,1.6162308E1,3.2201743E0,4.2011304E0,2.0770619E2,5.7346E2,4.5425083E1,6.606449E1,4.277487E3,6.1690027E2,1.04794395E2,8.418516E1,2.7460376E2,3.1439928E1,3.2038887E1,4.514767E1,7.126607E1,6.3430553E1,3.7155155E1,4.531112E0,1.6189266E3,2.392861E1,1.0584486E3,9.351359E1,9.060598E0,7.827716E0,7.583506E1,9.5290535E1,9.8268585E0,7.302638E1,3.6086587E3,1.2925365E3,2.243166E2,8.17312E2,1.2071991E2,1.6792772E2,3.566898E0,1.6876984E1,4.3425928E2,6.307867E3,2.0755923E2,1.2420295E3,1.4997435E3,4.2312622E2,1.8646002E2,2.2350583E2,2.2266254E1,6.498735E3,4.074996E0,1.2087312E1,3.1417448E1,1.7628874E2,5.0563083E2,6.782918E1,7.0742664E0,3.835082E1,4.6027336E1,2.0037153E1],"tree_param":{"num_deleted":"0","num_feature":"18","num_nodes":"111","size_leaf_vector":"1"}},{"base_weights":[7.144784E-3,1.5787458E-1,-5.36531E-1,9.643387E-2,4.1791844E-1,-6.161729E-1,1.5135478E-2,3.503894E-3,2.1558179E-1,3.0337277E-1,5.871418E-1,-6.1829686E-1,1.0713728E-1,1.4872739E-1,-1.6747741E-2,2.16503E-2,-2.9760253E-1,1.8114594E-1,4.9967954E-1,4.9740556E-1,7.666756E-2,6.5121794E-1,1.5988521E-1,-6.2037593E-1,8.87693E-2,-8.372162E-2,4.32086E-1,3.9491933E-2,-2.0303304E-1,-3.867218E-1,2.8599095E-1,9.273046E-2,3.176008E-1,5.431868E-1,-6.4721376E-2,-1.7769185E-1,5.81592E-1,-6.76418E-2,4.0836176E-1,7.6993734E-1,4.143316E-1,3.990414E-1,-3.4581536E-1,-7.248935E-2,-6.225602E-1,1.11110166E-1,-5.814835E-2,-1.602754E-1,4.0600118E-1,7.2290844E-1,-6.263342E-2,3.1459369E-3,7.266341E-2,1.4623694E-2,-3.2100648E-2,-5.2847076E-2,2.159595E-2,9.865665E-2,-6.479238E-2,-2.0996148E-2,1.7359786E-2,1.4787293E-2,4.6974014E-2,4.692134E-2,1.1880757E-1,-2.8934231E-2,6.0472757E-2,1.0957738E-1,5.2568257E-2,-2.3708163E-2,1.3346279E-2,3.5093855E-2,1.6124448E-1,8.562474E-2,3.009658E-2,2.6911194E-2,1.0102242E-1,-6.398236E-2,5.268514E-2,-4.9316425E-2,1.2518011E-1,-5.9428554E-2,1.1435377E-1,-6.2432863E-2,-5.5613756E-2,-3.79637E-2,-2.8901268E-3,1.20865576E-1,8.151004E-3,9.713287E-2,-3.2845852E-3],"categories":[],"categories_nodes":[],"categories_segments":[],"categories_sizes":[],"default_left":[0,0,0,0,0,0,0,0,0,0,0,0,0,0,0,0,0,0,0,0,0,0,0,0,0,0,0,0,0,0,0,0,0,0,0,0,0,0,0,0,0,0,0,0,0,0,0,0,0,0,0,0,0,0,0,0,0,0,0,0,0,0,0,0,0,0,0,0,0,0,0,0,0,0,0,0,0,0,0,0,0,0,0,0,0,0,0,0,0,0,0],"id":14,"left_children":[1,3,5,7,9,11,13,15,17,19,21,23,-1,-1,25,27,29,31,33,35,37,39,41,43,45,47,49,51,53,55,57,59,61,63,-1,65,67,69,71,73,75,77,79,81,83,-1,-1,85,87,89,-1,-1,-1,-1,-1,-1,-1,-1,-1,-1,-1,-1,-1,-1,-1,-1,-1,-1,-1,-1,-1,-1,-1,-1,-1,-1,-1,-1,-1,-1,-1,-1,-1,-1,-1,-1,-1,-1,-1,-1,-1],"loss_changes":[2.6643882E3,4.066286E2,3.101399E2,2.2798845E2,9.402466E1,2.2721436E1,4.1998455E1,6.3201283E1,8.8114624E1,1.2761569E2,5.3532654E1,9.1640625E0,0E0,0E0,2.6248674E1,4.3743958E1,3.431359E1,9.704352E1,4.8970398E1,8.902997E1,6.421936E1,4.753302E1,3.1276005E1,7.236084E0,1.3577366E1,2.8563698E1,3.5350525E1,5.5718025E1,3.313821E1,4.891838E1,5.7936657E1,1.1964099E2,8.157178E1,4.409906E1,0E0,1.5347148E1,3.9247467E1,3.1890022E1,2.7358147E1,4.5561035E1,4.909053E1,2.3610506E1,2.0092714E1,1.6934496E1,2.5341797E-1,0E0,0E0,1.893546E1,2.658884E1,1.6919521E1,0E0,0E0,0E0,0E0,0E0,0E0,0E0,0E0,0E0,0E0,0E0,0E0,0E0,0E0,0E0,0E0,0E0,0E0,0E0,0E0,0E0,0E0,0E0,0E0,0E0,0E0,0E0,0E0,0E0,0E0,0E0,0E0,0E0,0E0,0E0,0E0,0E0,0E0,0E0,0E0,0E0],"parents":[2147483647,0,0,1,1,2,2,3,3,4,4,5,5,6,6,7,7,8,8,9,9,10,10,11,11,14,14,15,15,16,16,17,17,18,18,19,19,20,20,21,21,22,22,23,23,24,24,25,25,26,26,27,27,28,28,29,29,30,30,31,31,32,32,33,33,35,35,36,36,37,37,38,38,39,39,40,40,41,41,42,42,43,43,44,44,47,47,48,48,49,49],"right_children":[2,4,6,8,10,12,14,16,18,20,22,24,-1,-1,26,28,30,32,34,36,38,40,42,44,46,48,50,52,54,56,58,60,62,64,-1,66,68,70,72,74,76,78,80,82,84,-1,-1,86,88,90,-1,-1,-1,-1,-1,-1,-1,-1,-1,-1,-1,-1,-1,-1,-1,-1,-1,-1,-1,-1,-1,-1,-1,-1,-1,-1,-1,-1,-1,-1,-1,-1,-1,-1,-1,-1,-1,-1,-1,-1,-1],"split_conditions":[3E0,2.0569126E1,1.2E1,6.816686E-1,1.1753695E0,4.6E1,1E0,2.6352254E-1,1.7E1,6E0,2.378608E0,1.7221668E1,1.0713728E-1,1.4872739E-1,2.2E1,9.486937E0,2E1,1.2208377E1,2.5855196E0,-1.7917799E1,1.02326E-2,3.1136954E0,2E0,6.3538527E0,1.7865377E1,1.1284167E0,2.4E1,9.034231E0,6E0,4.417403E-1,1.4056952E-1,1.4E1,-8.992445E-1,2.3601823E0,-6.4721376E-2,4.1322872E-1,2.1129696E1,-9.205699E-3,4.03791E-3,1.6E1,3.6004787E1,-2.173153E1,3.331731E1,6.211051E0,5E0,1.11110166E-1,-5.814835E-2,9.774965E0,-5.8533936E0,4.1257465E-1,-6.263342E-2,3.1459369E-3,7.266341E-2,1.4623694E-2,-3.2100648E-2,-5.2847076E-2,2.159595E-2,9.865665E-2,-6.479238E-2,-2.0996148E-2,1.7359786E-2,1.4787293E-2,4.6974014E-2,4.692134E-2,1.1880757E-1,-2.8934231E-2,6.0472757E-2,1.0957738E-1,5.2568257E-2,-2.3708163E-2,1.3346279E-2,3.5093855E-2,1.6124448E-1,8.562474E-2,3.009658E-2,2.6911194E-2,1.0102242E-1,-6.398236E-2,5.268514E-2,-4.9316425E-2,1.2518011E-1,-5.9428554E-2,1.1435377E-1,-6.2432863E-2,-5.5613756E-2,-3.79637E-2,-2.8901268E-3,1.20865576E-1,8.151004E-3,9.713287E-2,-3.2845852E-3],"split_indices":[2,0,3,12,12,7,10,11,7,3,12,5,0,0,3,5,3,0,12,5,11,5,7,0,5,11,3,5,3,2,5,3,5,12,0,1,0,5,1,3,5,5,0,0,3,0,0,0,5,11,0,0,0,0,0,0,0,0,0,0,0,0,0,0,0,0,0,0,0,0,0,0,0,0,0,0,0,0,0,0,0,0,0,0,0,0,0,0,0,0,0],"split_type":[0,0,0,0,0,0,0,0,0,0,0,0,0,0,0,0,0,0,0,0,0,0,0,0,0,0,0,0,0,0,0,0,0,0,0,0,0,0,0,0,0,0,0,0,0,0,0,0,0,0,0,0,0,0,0,0,0,0,0,0,0,0,0,0,0,0,0,0,0,0,0,0,0,0,0,0,0,0,0,0,0,0,0,0,0,0,0,0,0,0,0],"sum_hessian":[3.251153E4,2.5455178E4,7.0563525E3,2.0591717E4,4.863462E3,6.166223E3,8.901292E2,1.1569725E4,9.021991E3,2.9023042E3,1.9611576E3,6.1591646E3,7.058915E0,1.7968355E1,8.721609E2,1.0913287E4,6.5643726E2,8.048422E3,9.735699E2,1.5629603E3,1.3393439E3,1.704738E3,2.5641953E2,6.14137E3,1.7794397E1,7.5981885E2,1.1234205E2,1.0111614E4,8.0167267E2,5.6991547E2,8.652181E1,4.885373E3,3.1630488E3,9.385786E2,3.4991276E1,1.7304019E2,1.3899202E3,9.336414E2,4.0570242E2,1.133829E3,5.70909E2,1.7436662E2,8.205291E1,2.4704277E1,6.1166655E3,6.845088E0,1.0949308E1,6.578588E2,1.0195999E2,8.8450066E1,2.3891983E1,9.995955E3,1.15659515E2,2.0213834E2,5.9953436E2,4.6163034E2,1.08285126E2,4.9465786E1,3.7056026E1,1.029406E3,3.855967E3,1.4963444E3,1.6667043E3,8.436846E2,9.489406E1,1.5209447E2,2.0945723E1,1.3431154E2,1.2556086E3,5.0688553E2,4.267559E2,3.8854697E2,1.7155457E1,9.567151E2,1.7711389E2,4.603425E2,1.1056652E2,1.8577396E1,1.5578923E2,7.5814415E1,6.238492E0,1.7701921E1,7.002356E0,5.948392E3,1.6827365E2,2.4541943E2,4.124394E2,2.8479858E1,7.348013E1,6.645354E1,2.1996534E1],"tree_param":{"num_deleted":"0","num_feature":"18","num_nodes":"91","size_leaf_vector":"1"}},{"base_weights":[-2.2881877E-2,-5.1997924E-1,1.0382171E0,-5.279005E-1,3.8334917E-2,-5.8232665E-1,1.2386932E0,-4.8806235E-1,-6.085747E-1,1.1915175E-1,-3.8841528E-1,-6.279995E-2,-9.882069E-2,1.2436388E-1,-5.9894145E-2,-5.732713E-1,-3.9787668E-1,-5.624123E-1,-6.2351443E-2,5.6453514E-1,-6.303221E-2,9.8384607E-1,-6.180535E-2,5.835384E-1,-5.8014715E-1,1.5080293E-1,-4.69454E-1,-5.904188E-1,-2.552295E-1,-6.0711753E-2,1.7284946E-1,1.3084832E-1,-5.464067E-2,-5.9874546E-2,1.4841926E-1,-5.04857E-2,-6.1122555E-2,2.952571E-2,-6.557794E-2,-5.3543102E-2,-3.7393284E-3,-6.2440883E-2,-5.4386772E-2,1.20697476E-1,-6.193856E-2],"categories":[],"categories_nodes":[],"categories_segments":[],"categories_sizes":[],"default_left":[0,0,0,0,0,0,0,0,0,0,0,0,0,0,0,0,0,0,0,0,0,0,0,0,0,0,0,0,0,0,0,0,0,0,0,0,0,0,0,0,0,0,0,0,0],"id":15,"left_children":[1,3,5,7,9,11,13,15,17,-1,19,-1,21,-1,-1,23,25,27,-1,29,-1,31,-1,33,35,37,39,41,43,-1,-1,-1,-1,-1,-1,-1,-1,-1,-1,-1,-1,-1,-1,-1,-1],"loss_changes":[1.6797879E4,9.597998E1,3.3014326E3,6.831787E1,1.5021611E2,2.4578308E1,8.2978516E1,1.0972339E2,4.4020996E0,0E0,5.1695705E1,0E0,5.564219E1,0E0,0E0,5.888501E1,2.734806E2,1.4725586E1,0E0,6.3249035E1,0E0,1.672619E1,0E0,4.7727737E1,1.6702637E1,9.382177E1,1.7546533E2,2.0635986E0,7.915442E1,0E0,0E0,0E0,0E0,0E0,0E0,0E0,0E0,0E0,0E0,0E0,0E0,0E0,0E0,0E0,0E0],"parents":[2147483647,0,0,1,1,2,2,3,3,4,4,5,5,6,6,7,7,8,8,10,10,12,12,15,15,16,16,17,17,19,19,21,21,23,23,24,24,25,25,26,26,27,27,28,28],"right_children":[2,4,6,8,10,12,14,16,18,-1,20,-1,22,-1,-1,24,26,28,-1,30,-1,32,-1,34,36,38,40,42,44,-1,-1,-1,-1,-1,-1,-1,-1,-1,-1,-1,-1,-1,-1,-1,-1],"split_conditions":[2.7141147E0,2.5855196E0,4.03791E-3,-9.930484E-1,2E0,2.8E1,4E0,7.403627E0,1.2522072E-5,1.1915175E-1,-3.4933891E0,-6.279995E-2,2.9E1,1.2436388E-1,-5.9894145E-2,-2.4858965E1,8.570562E0,3E0,-6.2351443E-2,-3.513094E0,-6.303221E-2,3.56428E0,-6.180535E-2,-1.9778367E0,1E0,8.270331E0,-1.630763E0,3.873267E-1,4E0,-6.0711753E-2,1.7284946E-1,1.3084832E-1,-5.464067E-2,-5.9874546E-2,1.4841926E-1,-5.04857E-2,-6.1122555E-2,2.952571E-2,-6.557794E-2,-5.3543102E-2,-3.7393284E-3,-6.2440883E-2,-5.4386772E-2,1.20697476E-1,-6.193856E-2],"split_indices":[9,9,1,4,3,7,3,0,9,0,4,0,7,0,0,5,0,7,0,4,0,9,0,4,6,5,4,6,7,0,0,0,0,0,0,0,0,0,0,0,0,0,0,0,0],"split_type":[0,0,0,0,0,0,0,0,0,0,0,0,0,0,0,0,0,0,0,0,0,0,0,0,0,0,0,0,0,0,0,0,0,0,0,0,0,0,0,0,0,0,0,0,0],"sum_hessian":[3.184424E4,2.168567E4,1.015857E4,2.1382531E4,3.0313867E2,1.118093E3,9.040478E3,1.4319588E4,7.0629434E3,8.145899E1,2.216797E2,1.02112964E3,9.696336E1,9.016589E3,2.3888165E1,7.3596265E3,6.9599614E3,1.7380082E3,5.3249355E3,4.452683E1,1.7715286E2,3.1076822E1,6.588654E1,4.2904274E1,7.316722E3,8.028868E2,6.1570747E3,1.5916469E3,1.4636136E2,2.2385681E1,2.214115E1,2.5811325E1,5.265498E0,1.8648573E1,2.4255703E1,2.143753E3,5.172969E3,6.8157806E2,1.21308716E2,5.341014E3,8.1606036E2,9.1152246E2,6.801243E2,2.8666615E1,1.1769475E2],"tree_param":{"num_deleted":"0","num_feature":"18","num_nodes":"45","size_leaf_vector":"1"}},{"base_weights":[5.0168246E-4,3.3638E-1,-1.4040415E-1,5.0638616E-1,2.0223016E-1,-4.55533E-1,1.3929122E-2,6.071927E-1,3.18661E-1,8.511365E-2,3.7652007E-1,1.771121E-1,-6.0472107E-1,-2.4341916E-1,1.947093E-1,7.687861E-1,4.8399067E-1,4.8312697E-1,-3.7741523E-2,5.659635E-2,5.2420574E-1,-1.5062042E-1,4.6558347E-1,7.0969224E-1,-6.762022E-2,1.1413715E-1,-6.12877E-2,-3.2822564E-1,-2.1739598E-1,1.3875847E-1,5.0112844E-1,9.8940563E-1,6.194334E-1,7.620115E-2,5.5838645E-1,8.28022E-1,3.3103234E-1,-1.1318104E-1,3.5973507E-1,-5.7835113E-2,9.908552E-2,2.3774973E-1,8.9267135E-1,7.3177844E-1,-3.2985243E-1,6.1606157E-1,2.4550222E-1,8.8561E-1,2.9883042E-1,-1.1439782E-1,1.0569462E0,-2.0168969E-1,-3.914174E-1,-2.3514381E-1,-1.1476866E-2,-4.051856E-2,2.1353643E-1,6.2677443E-1,-9.334218E-2,1.0953807E-1,5.7972725E-2,7.745947E-2,3.874708E-2,4.0684126E-2,-1.4252168E-2,7.461588E-2,4.1663308E-2,1.1235934E-1,7.1828015E-2,8.3759665E-2,1.985147E-2,-3.645992E-3,-3.575925E-2,5.6118138E-2,-3.8885325E-2,-6.510438E-3,1.3522162E-1,4.9090423E-2,6.765064E-3,4.5178045E-2,-5.4021895E-2,1.1325709E-1,7.280551E-3,9.6103287E-4,1.07505836E-1,1.0950625E-1,-3.5674084E-2,7.4514575E-2,4.105829E-2,4.5441877E-2,6.4757415E-3,1.0151817E-1,4.2431515E-2,-9.766537E-3,1.0665845E-1,-2.1652829E-2,2.9147223E-2,1.1984014E-1,-3.0187262E-2,-1.2297212E-2,-4.363064E-2,-4.0181357E-2,-1.1969922E-2,-2.1047784E-2,-3.428364E-2,3.0598931E-3,-5.186045E-2,2.4387954E-2,-1.424167E-2,2.450478E-2,-1.957529E-2,3.262207E-2,6.86874E-2,1.21074915E-1,-1.4223543E-2],"categories":[],"categories_nodes":[],"categories_segments":[],"categories_sizes":[],"default_left":[0,0,0,0,0,0,0,0,0,0,0,0,0,0,0,0,0,0,0,0,0,0,0,0,0,0,0,0,0,0,0,0,0,0,0,0,0,0,0,0,0,0,0,0,0,0,0,0,0,0,0,0,0,0,0,0,0,0,0,0,0,0,0,0,0,0,0,0,0,0,0,0,0,0,0,0,0,0,0,0,0,0,0,0,0,0,0,0,0,0,0,0,0,0,0,0,0,0,0,0,0,0,0,0,0,0,0,0,0,0,0,0,0,0,0],"id":16,"left_children":[1,3,5,7,9,11,13,15,17,19,21,23,25,27,29,31,33,35,37,39,41,43,45,47,49,-1,-1,51,53,55,57,59,61,63,65,67,69,71,73,75,77,79,81,83,85,87,89,91,93,95,97,99,101,103,105,107,109,111,113,-1,-1,-1,-1,-1,-1,-1,-1,-1,-1,-1,-1,-1,-1,-1,-1,-1,-1,-1,-1,-1,-1,-1,-1,-1,-1,-1,-1,-1,-1,-1,-1,-1,-1,-1,-1,-1,-1,-1,-1,-1,-1,-1,-1,-1,-1,-1,-1,-1,-1,-1,-1,-1,-1,-1,-1],"loss_changes":[1.5109866E3,2.1501343E2,1.0938756E3,7.8447876E1,1.07613815E2,6.9800903E2,7.024379E2,5.336548E1,8.541101E1,3.9444855E1,9.962103E1,1.8409123E2,8.585571E1,1.3622864E1,1.5191779E2,3.7723328E1,4.6558228E1,5.188652E1,1.3824049E1,1.4430445E1,1.9961605E1,4.87499E1,5.9829834E1,3.1753815E1,5.0942917E1,0E0,0E0,1.1535263E1,1.7408386E1,1.0058606E2,1.0234509E2,1.9589813E1,2.4764954E1,1.7345783E1,3.4187866E1,8.873138E0,4.628064E1,7.223234E0,1.1317034E1,8.190838E0,2.6562557E1,1.8493143E1,1.6230461E1,1.2782593E1,1.0122417E1,2.812616E1,2.7803837E1,1.7993011E1,4.129068E1,3.8615685E1,7.8834114E0,8.918484E0,2.6457062E0,1.1538712E1,8.174426E0,6.402079E1,6.83289E1,2.008905E1,1.5339052E1,0E0,0E0,0E0,0E0,0E0,0E0,0E0,0E0,0E0,0E0,0E0,0E0,0E0,0E0,0E0,0E0,0E0,0E0,0E0,0E0,0E0,0E0,0E0,0E0,0E0,0E0,0E0,0E0,0E0,0E0,0E0,0E0,0E0,0E0,0E0,0E0,0E0,0E0,0E0,0E0,0E0,0E0,0E0,0E0,0E0,0E0,0E0,0E0,0E0,0E0,0E0,0E0,0E0,0E0,0E0,0E0],"parents":[2147483647,0,0,1,1,2,2,3,3,4,4,5,5,6,6,7,7,8,8,9,9,10,10,11,11,12,12,13,13,14,14,15,15,16,16,17,17,18,18,19,19,20,20,21,21,22,22,23,23,24,24,27,27,28,28,29,29,30,30,31,31,32,32,33,33,34,34,35,35,36,36,37,37,38,38,39,39,40,40,41,41,42,42,43,43,44,44,45,45,46,46,47,47,48,48,49,49,50,50,51,51,52,52,53,53,54,54,55,55,56,56,57,57,58,58],"right_children":[2,4,6,8,10,12,14,16,18,20,22,24,26,28,30,32,34,36,38,40,42,44,46,48,50,-1,-1,52,54,56,58,60,62,64,66,68,70,72,74,76,78,80,82,84,86,88,90,92,94,96,98,100,102,104,106,108,110,112,114,-1,-1,-1,-1,-1,-1,-1,-1,-1,-1,-1,-1,-1,-1,-1,-1,-1,-1,-1,-1,-1,-1,-1,-1,-1,-1,-1,-1,-1,-1,-1,-1,-1,-1,-1,-1,-1,-1,-1,-1,-1,-1,-1,-1,-1,-1,-1,-1,-1,-1,-1,-1,-1,-1,-1,-1],"split_conditions":[-6.6243935E-1,1.4E1,4E0,1.9896673E1,1.1265748E1,1.2191382E-1,1.4105412E0,2.1820043E-1,9.397728E-1,2E1,3.3771732E-1,1.6847574E1,4.03791E-3,-1.847845E-5,1E0,1.1915936E1,1.2522072E-5,-1.9581474E1,2.3044875E0,1.9134387E0,1.4342444E0,1.3464899E0,1.9525766E1,1.5057494E1,9.190331E-4,1.1413715E-1,-6.12877E-2,-3.3485457E-2,1.7499228E-1,5.5337167E-1,2.1E1,1E0,7.424857E-1,7E0,5.5144227E-1,-3.3296036E1,2.2820911E1,3.0008791E1,3.1180553E1,3.8E1,2.7591703E0,1.4100517E0,6.9308E-1,3.843138E-2,1.2208377E1,1.7525531E0,4.0341738E-1,1E0,1.9687168E1,1.2292299E1,3.3246483E1,5.2E-1,1.4958866E-1,4.947981E-4,3.9E1,1.3059664E1,3.0008791E1,1.38968E0,1.3575563E-1,1.0953807E-1,5.7972725E-2,7.745947E-2,3.874708E-2,4.0684126E-2,-1.4252168E-2,7.461588E-2,4.1663308E-2,1.1235934E-1,7.1828015E-2,8.3759665E-2,1.985147E-2,-3.645992E-3,-3.575925E-2,5.6118138E-2,-3.8885325E-2,-6.510438E-3,1.3522162E-1,4.9090423E-2,6.765064E-3,4.5178045E-2,-5.4021895E-2,1.1325709E-1,7.280551E-3,9.6103287E-4,1.07505836E-1,1.0950625E-1,-3.5674084E-2,7.4514575E-2,4.105829E-2,4.5441877E-2,6.4757415E-3,1.0151817E-1,4.2431515E-2,-9.766537E-3,1.0665845E-1,-2.1652829E-2,2.9147223E-2,1.1984014E-1,-3.0187262E-2,-1.2297212E-2,-4.363064E-2,-4.0181357E-2,-1.1969922E-2,-2.1047784E-2,-3.428364E-2,3.0598931E-3,-5.186045E-2,2.4387954E-2,-1.424167E-2,2.450478E-2,-1.957529E-2,3.262207E-2,6.86874E-2,1.21074915E-1,-1.4223543E-2],"split_indices":[15,3,3,0,0,11,0,6,9,3,6,0,1,15,10,0,9,15,9,0,9,9,0,15,11,0,0,15,0,15,3,16,1,3,1,15,0,0,0,7,0,1,11,9,0,1,1,7,15,15,0,0,11,0,7,0,0,9,11,0,0,0,0,0,0,0,0,0,0,0,0,0,0,0,0,0,0,0,0,0,0,0,0,0,0,0,0,0,0,0,0,0,0,0,0,0,0,0,0,0,0,0,0,0,0,0,0,0,0,0,0,0,0,0,0],"split_type":[0,0,0,0,0,0,0,0,0,0,0,0,0,0,0,0,0,0,0,0,0,0,0,0,0,0,0,0,0,0,0,0,0,0,0,0,0,0,0,0,0,0,0,0,0,0,0,0,0,0,0,0,0,0,0,0,0,0,0,0,0,0,0,0,0,0,0,0,0,0,0,0,0,0,0,0,0,0,0,0,0,0,0,0,0,0,0,0,0,0,0,0,0,0,0,0,0,0,0,0,0,0,0,0,0,0,0,0,0,0,0,0,0,0,0],"sum_hessian":[3.1923967E4,9.434411E3,2.2489557E4,4.159552E3,5.27486E3,7.392898E3,1.5096658E4,2.7044966E3,1.455055E3,3.156122E3,2.1187375E3,1.4105364E3,5.9823613E3,6.228799E3,8.867859E3,1.1673431E3,1.5371534E3,9.9556525E2,4.5948978E2,2.964919E3,1.9120316E2,3.059709E2,1.8127667E3,4.436297E2,9.669066E2,2.7110489E1,5.955251E3,1.4589137E3,4.769885E3,7.5001445E3,1.3677152E3,4.6869934E2,6.986438E2,2.3768524E2,1.2994681E3,3.031133E2,6.924519E2,3.8700464E2,7.248514E1,8.0207166E2,2.1628472E3,1.0865117E2,8.2551994E1,5.10415E1,2.5492937E2,1.0752933E3,7.374734E2,3.0964908E2,1.3398062E2,9.29241E2,3.766562E1,4.87837E2,9.710767E2,4.39082E3,3.7906525E2,2.2073164E3,5.292828E3,1.1291702E3,2.38545E2,3.7085037E2,9.784896E1,4.1696368E2,2.8168008E2,9.4471375E1,1.4321387E2,5.5685974E2,7.426084E2,7.93223E1,2.2379102E2,1.423245E2,5.5012744E2,2.9573218E2,9.127245E1,5.741784E1,1.50673E1,7.989774E2,3.0942361E0,1.59312E2,2.0035352E3,8.563856E1,2.3012613E1,6.347523E1,1.9076757E1,1.6870283E1,3.4171215E1,3.9168296E0,2.5101254E2,6.585016E2,4.167917E2,3.411188E2,3.963546E2,2.4063919E2,6.9009895E1,8.884198E1,4.513865E1,7.4299225E2,1.8624878E2,3.428785E1,3.3777697E0,3.6674033E2,1.21096695E2,9.344761E2,3.6600643E1,3.5757183E3,8.151014E2,3.5070972E2,2.8355509E1,5.816248E2,1.6256917E3,4.9150605E3,3.777673E2,1.8951433E2,9.396558E2,7.687733E0,2.3085727E2],"tree_param":{"num_deleted":"0","num_feature":"18","num_nodes":"115","size_leaf_vector":"1"}},{"base_weights":[2.172585E-3,3.3676758E-1,-5.5333745E-1,6.1576533E-1,1.5986577E-1,-4.5741442E-1,-6.108555E-1,5.287291E-1,1.0452318E0,2.2242628E-1,-5.3504776E-2,-3.8578725E-1,-6.1518956E-2,-6.1196744E-1,-3.1146336E-1,4.9460754E-1,8.614494E-1,8.5369223E-1,1.0706183E0,5.0401278E-2,3.1047064E-1,1.1328631E-1,-1.4166616E-1,-1.228244E-1,-4.7819865E-1,-4.6522918E-1,-6.12952E-1,-6.0133915E-2,8.681271E-2,5.5645657E-1,3.323627E-1,8.999799E-1,-6.76747E-2,9.182507E-1,-5.9684552E-2,5.463177E-1,1.0794455E0,4.4295064E-1,1.3035164E-2,2.826959E-1,5.5928624E-1,2.1482182E-1,-1.9739929E-1,-2.4237211E-1,-4.447033E-2,-6.230838E-2,-3.1167468E-2,-5.278614E-1,-2.2877952E-1,-6.288932E-2,4.964891E-1,-6.1405923E-2,-5.434024E-1,4.410043E-2,7.013167E-2,4.100739E-3,4.58335E-2,9.393384E-2,2.7550656E-2,7.163128E-2,1.1691337E-1,-5.9377857E-2,8.747178E-2,1.0950138E-1,9.660474E-2,1.8287553E-2,1.17056064E-1,-4.15652E-3,3.3394273E-2,2.6683975E-2,6.0882162E-2,8.101276E-2,3.5352465E-2,1.5163392E-2,8.3698586E-2,6.48836E-2,-3.4207266E-2,-3.1659722E-2,1.2272066E-2,-1.6269939E-2,2.717263E-2,-1.284066E-2,2.8280308E-2,-5.452883E-2,4.8273854E-2,-3.4103137E-3,-6.2330045E-2,1.2758958E-1,-4.809487E-2,-6.143384E-2,8.296715E-2],"categories":[],"categories_nodes":[],"categories_segments":[],"categories_sizes":[],"default_left":[0,0,0,0,0,0,0,0,0,0,0,0,0,0,0,0,0,0,0,0,0,0,0,0,0,0,0,0,0,0,0,0,0,0,0,0,0,0,0,0,0,0,0,0,0,0,0,0,0,0,0,0,0,0,0,0,0,0,0,0,0,0,0,0,0,0,0,0,0,0,0,0,0,0,0,0,0,0,0,0,0,0,0,0,0,0,0,0,0,0,0],"id":17,"left_children":[1,3,5,7,9,11,13,15,17,19,21,23,-1,25,27,29,31,33,35,37,39,41,43,45,47,49,51,-1,-1,53,55,57,-1,59,-1,61,63,65,67,69,71,73,75,77,79,-1,81,83,85,-1,87,-1,89,-1,-1,-1,-1,-1,-1,-1,-1,-1,-1,-1,-1,-1,-1,-1,-1,-1,-1,-1,-1,-1,-1,-1,-1,-1,-1,-1,-1,-1,-1,-1,-1,-1,-1,-1,-1,-1,-1],"loss_changes":[6.015346E3,9.966897E2,6.673364E1,2.9222046E2,1.6504456E2,5.1250183E1,2.2473145E0,7.344104E1,5.30896E0,1.4473962E2,4.1239098E1,7.625076E1,0E0,7.011719E-1,1.0922912E1,5.9078247E1,3.64693E1,1.5544403E1,4.6190186E0,4.744342E1,4.3453552E1,3.0627876E1,1.7919178E1,3.7461212E1,2.8600891E1,9.0287E0,1.2915039E-1,0E0,0E0,7.116272E1,5.995349E1,1.4130737E1,0E0,6.7481384E0,0E0,8.570397E0,7.487793E-1,5.285652E1,5.1868908E1,2.9175049E1,3.2296814E1,2.8528976E1,2.9461433E1,2.445716E1,3.5000557E1,0E0,2.118667E1,3.4395386E1,2.9723642E1,0E0,7.1772842E0,0E0,1.2946251E1,0E0,0E0,0E0,0E0,0E0,0E0,0E0,0E0,0E0,0E0,0E0,0E0,0E0,0E0,0E0,0E0,0E0,0E0,0E0,0E0,0E0,0E0,0E0,0E0,0E0,0E0,0E0,0E0,0E0,0E0,0E0,0E0,0E0,0E0,0E0,0E0,0E0,0E0],"parents":[2147483647,0,0,1,1,2,2,3,3,4,4,5,5,6,6,7,7,8,8,9,9,10,10,11,11,13,13,14,14,15,15,16,16,17,17,18,18,19,19,20,20,21,21,22,22,23,23,24,24,25,25,26,26,29,29,30,30,31,31,33,33,35,35,36,36,37,37,38,38,39,39,40,40,41,41,42,42,43,43,44,44,46,46,47,47,48,48,50,50,52,52],"right_children":[2,4,6,8,10,12,14,16,18,20,22,24,-1,26,28,30,32,34,36,38,40,42,44,46,48,50,52,-1,-1,54,56,58,-1,60,-1,62,64,66,68,70,72,74,76,78,80,-1,82,84,86,-1,88,-1,90,-1,-1,-1,-1,-1,-1,-1,-1,-1,-1,-1,-1,-1,-1,-1,-1,-1,-1,-1,-1,-1,-1,-1,-1,-1,-1,-1,-1,-1,-1,-1,-1,-1,-1,-1,-1,-1,-1],"split_conditions":[0E0,5.2E-1,4.187841E-3,-1.3931187E0,-1.932937E0,7.405322E0,2.7523947E1,2.03996E-1,-1.2608131E0,-3.8828104E0,1.1495784E1,4.6468186E-1,-6.1518956E-2,1.117222E-1,3.152186E-1,3.4242883E-5,-1.595011E0,2.6E-1,-1.1465027E1,2.2692907E0,1.8E1,8.926474E-2,-1.1581408E0,1.0436728E1,1.4E1,7.8044005E-2,2.3280422E1,-6.0133915E-2,8.681271E-2,-3.4675817E0,1.1276798E-2,4.233402E0,-6.76747E-2,1E0,-5.9684552E-2,-5.2207166E-1,9.256321E-2,1.0744529E0,2.0560827E0,3.161271E1,1.38968E0,-2.2198959E-1,-1.3383864E1,3.702837E-3,1.973587E0,-6.230838E-2,2.5078737E1,3.2130302E1,3.4242883E-5,-6.288932E-2,6.66202E-1,-6.1405923E-2,1.8801986E-1,4.410043E-2,7.013167E-2,4.100739E-3,4.58335E-2,9.393384E-2,2.7550656E-2,7.163128E-2,1.1691337E-1,-5.9377857E-2,8.747178E-2,1.0950138E-1,9.660474E-2,1.8287553E-2,1.17056064E-1,-4.15652E-3,3.3394273E-2,2.6683975E-2,6.0882162E-2,8.101276E-2,3.5352465E-2,1.5163392E-2,8.3698586E-2,6.48836E-2,-3.4207266E-2,-3.1659722E-2,1.2272066E-2,-1.6269939E-2,2.717263E-2,-1.284066E-2,2.8280308E-2,-5.452883E-2,4.8273854E-2,-3.4103137E-3,-6.2330045E-2,1.2758958E-1,-4.809487E-2,-6.143384E-2,8.296715E-2],"split_indices":[4,0,11,4,4,4,5,11,4,4,0,6,0,0,11,5,4,0,5,0,7,11,4,0,7,0,0,0,0,4,5,9,0,17,0,4,5,5,1,0,9,4,5,11,9,0,0,5,5,0,11,0,11,0,0,0,0,0,0,0,0,0,0,0,0,0,0,0,0,0,0,0,0,0,0,0,0,0,0,0,0,0,0,0,0,0,0,0,0,0,0],"split_type":[0,0,0,0,0,0,0,0,0,0,0,0,0,0,0,0,0,0,0,0,0,0,0,0,0,0,0,0,0,0,0,0,0,0,0,0,0,0,0,0,0,0,0,0,0,0,0,0,0,0,0,0,0,0,0,0,0,0,0,0,0,0,0,0,0,0,0,0,0,0,0,0,0,0,0,0,0,0,0,0,0,0,0,0,0,0,0,0,0,0,0],"sum_hessian":[3.236115E4,2.0196787E4,1.2164361E4,7.835738E3,1.236105E4,4.563872E3,7.6004897E3,6.517381E3,1.3183569E3,9.558818E3,2.8022314E3,3.1416816E3,1.4221904E3,7.570994E3,2.9495733E1,5.913699E3,6.0368146E2,1.5879814E2,1.1595588E3,3.236977E3,6.321842E3,9.685079E2,1.8337236E3,8.178489E2,2.3238328E3,5.429412E1,7.5166997E3,2.4138788E1,5.3569436E0,4.2793364E3,1.6343627E3,5.893975E2,1.4283976E1,1.5244907E2,6.3490863E0,2.0428282E1,1.1391305E3,2.8016592E2,2.956811E3,5.6892954E3,6.32546E2,7.304267E2,2.3808116E2,8.993609E2,9.3436273E2,1.2557533E2,6.9227356E2,1.9366931E3,3.871396E2,4.6782745E1,7.5113735E0,7.389794E3,1.26905975E2,2.384024E3,1.8953125E3,4.939797E2,1.1403829E3,5.538272E2,3.5570282E1,8.682036E1,6.56287E1,4.3195696E0,1.6108711E1,9.932337E2,1.458968E2,2.0741632E2,7.274961E1,2.5273564E3,4.2945468E2,5.427535E3,2.617606E2,2.8350522E2,3.4904077E2,6.64358E2,6.606873E1,3.415032E1,2.0393085E2,7.477471E2,1.5161383E2,6.8065924E2,2.537035E2,5.2926544E2,1.6300812E2,1.9044126E3,3.2280468E1,2.601222E2,1.2701741E2,4.066064E0,3.4453094E0,1.2126649E2,5.6394815E0],"tree_param":{"num_deleted":"0","num_feature":"18","num_nodes":"91","size_leaf_vector":"1"}},{"base_weights":[9.829047E-3,3.3769163E-1,-5.208478E-1,8.421083E-2,5.2809334E-1,-5.868641E-1,-1.7367814E-1,1.852104E-1,-5.76168E-1,7.677849E-1,4.4174054E-1,-3.9712313E-1,-6.0190153E-1,7.957247E-2,-6.268106E-1,1.3855357E-1,3.7575752E-1,1.2635939E-1,-5.989855E-1,1.0683842E0,6.785146E-1,6.660816E-1,3.6757278E-1,-6.288803E-2,-1.5493701E-1,-6.0826004E-1,-4.9392056E-1,-4.3744317E-1,6.9958293E-1,-4.8180667E-1,-6.441759E-2,4.1586208E-1,9.7948804E-2,3.2387114E-1,1.2068573E0,1.06811054E-1,-6.10134E-1,1.174897E0,-4.7282536E-2,5.589715E-1,8.768508E-1,7.76432E-1,4.9774018E-1,4.429038E-1,2.1060245E-1,2.6648292E-1,-6.333811E-2,-6.108947E-1,-4.5046726E-1,-2.4440113E-1,-6.038379E-1,3.1185693E-1,-4.8460326E-1,8.727943E-1,-6.54407E-2,-7.5521715E-2,-6.392859E-2,1.8978061E-2,1.0159464E-1,2.0142453E-2,1.092943E-3,2.4312807E-2,6.465499E-2,-5.602748E-2,1.3510159E-1,-5.899123E-2,1.00065544E-1,-4.024015E-2,-6.454244E-2,-6.093821E-2,1.2002589E-1,5.879556E-2,-6.8896465E-2,6.157117E-2,1.9197365E-2,9.014794E-2,-6.7664914E-2,7.4098945E-2,1.3405402E-1,9.647332E-2,3.7101522E-2,3.527844E-3,4.7532726E-2,-2.442639E-3,4.727012E-2,9.332099E-2,-2.0139225E-2,-6.1225366E-2,-3.0953616E-2,-1.0259795E-2,-6.2305775E-2,-6.276348E-2,-1.4697457E-2,-3.0393725E-2,-6.403835E-2,4.9159672E-2,-5.7261255E-2,-5.722272E-2,-1.6441572E-2,9.723022E-2,3.1190261E-2,-6.20404E-2,5.3006608E-2],"categories":[],"categories_nodes":[],"categories_segments":[],"categories_sizes":[],"default_left":[0,0,0,0,0,0,0,0,0,0,0,0,0,0,0,0,0,0,0,0,0,0,0,0,0,0,0,0,0,0,0,0,0,0,0,0,0,0,0,0,0,0,0,0,0,0,0,0,0,0,0,0,0,0,0,0,0,0,0,0,0,0,0,0,0,0,0,0,0,0,0,0,0,0,0,0,0,0,0,0,0,0,0,0,0,0,0,0,0,0,0,0,0,0,0,0,0,0,0,0,0,0,0],"id":18,"left_children":[1,3,5,7,9,11,13,15,17,19,21,23,25,27,29,31,33,-1,35,37,39,41,43,-1,45,47,49,51,53,55,-1,57,59,61,63,65,67,69,71,73,75,77,79,81,83,85,-1,87,89,91,93,95,97,99,-1,101,-1,-1,-1,-1,-1,-1,-1,-1,-1,-1,-1,-1,-1,-1,-1,-1,-1,-1,-1,-1,-1,-1,-1,-1,-1,-1,-1,-1,-1,-1,-1,-1,-1,-1,-1,-1,-1,-1,-1,-1,-1,-1,-1,-1,-1,-1,-1],"loss_changes":[5.69361E3,9.761311E2,2.8623218E2,5.788636E2,2.3861182E2,2.961792E1,2.2942252E2,6.6819336E1,4.901895E1,8.114685E1,